digraph Tree {
node [shape=box, style="filled, rounded", color="black", fontname=helvetica] ;
edge [fontname=helvetica] ;
0 [label="credit.policy <= 0.5\ngini = 0.272\nsamples = 6704\nvalue = [5614, 1090]", fillcolor="#ea995f"] ;
1 [label="installment <= 349.935\ngini = 0.408\nsamples = 1317\nvalue = [941, 376]", fillcolor="#efb388"] ;
0 -> 1 [labeldistance=2.5, labelangle=45, headlabel="True"] ;
2 [label="inq.last.6mths <= 6.5\ngini = 0.378\nsamples = 943\nvalue = [704, 239]", fillcolor="#eeac7c"] ;
1 -> 2 ;
3 [label="int.rate <= 0.084\ngini = 0.36\nsamples = 815\nvalue = [623, 192]", fillcolor="#eda876"] ;
2 -> 3 ;
4 [label="gini = 0.0\nsamples = 26\nvalue = [26, 0]", fillcolor="#e58139"] ;
3 -> 4 ;
5 [label="purpose_small_business <= 0.5\ngini = 0.368\nsamples = 789\nvalue = [597, 192]", fillcolor="#edaa79"] ;
3 -> 5 ;
6 [label="revol.util <= 50.95\ngini = 0.362\nsamples = 768\nvalue = [586, 182]", fillcolor="#eda876"] ;
5 -> 6 ;
7 [label="revol.util <= 1.35\ngini = 0.313\nsamples = 329\nvalue = [265, 64]", fillcolor="#eb9f69"] ;
6 -> 7 ;
8 [label="dti <= 6.54\ngini = 0.47\nsamples = 37\nvalue = [23, 14]", fillcolor="#f5ceb2"] ;
7 -> 8 ;
9 [label="days.with.cr.line <= 1890.021\ngini = 0.444\nsamples = 18\nvalue = [6, 12]", fillcolor="#9ccef2"] ;
8 -> 9 ;
10 [label="dti <= 4.245\ngini = 0.496\nsamples = 11\nvalue = [6, 5]", fillcolor="#fbeade"] ;
9 -> 10 ;
11 [label="int.rate <= 0.104\ngini = 0.444\nsamples = 9\nvalue = [6, 3]", fillcolor="#f2c09c"] ;
10 -> 11 ;
12 [label="inq.last.6mths <= 2.5\ngini = 0.5\nsamples = 6\nvalue = [3, 3]", fillcolor="#ffffff"] ;
11 -> 12 ;
13 [label="int.rate <= 0.1\ngini = 0.375\nsamples = 4\nvalue = [3, 1]", fillcolor="#eeab7b"] ;
12 -> 13 ;
14 [label="gini = 0.0\nsamples = 3\nvalue = [3, 0]", fillcolor="#e58139"] ;
13 -> 14 ;
15 [label="gini = 0.0\nsamples = 1\nvalue = [0, 1]", fillcolor="#399de5"] ;
13 -> 15 ;
16 [label="gini = 0.0\nsamples = 2\nvalue = [0, 2]", fillcolor="#399de5"] ;
12 -> 16 ;
17 [label="gini = 0.0\nsamples = 3\nvalue = [3, 0]", fillcolor="#e58139"] ;
11 -> 17 ;
18 [label="gini = 0.0\nsamples = 2\nvalue = [0, 2]", fillcolor="#399de5"] ;
10 -> 18 ;
19 [label="gini = 0.0\nsamples = 7\nvalue = [0, 7]", fillcolor="#399de5"] ;
9 -> 19 ;
20 [label="revol.bal <= 24.0\ngini = 0.188\nsamples = 19\nvalue = [17, 2]", fillcolor="#e89050"] ;
8 -> 20 ;
21 [label="dti <= 22.42\ngini = 0.105\nsamples = 18\nvalue = [17, 1]", fillcolor="#e78845"] ;
20 -> 21 ;
22 [label="gini = 0.0\nsamples = 17\nvalue = [17, 0]", fillcolor="#e58139"] ;
21 -> 22 ;
23 [label="gini = 0.0\nsamples = 1\nvalue = [0, 1]", fillcolor="#399de5"] ;
21 -> 23 ;
24 [label="gini = 0.0\nsamples = 1\nvalue = [0, 1]", fillcolor="#399de5"] ;
20 -> 24 ;
25 [label="log.annual.inc <= 9.815\ngini = 0.284\nsamples = 292\nvalue = [242, 50]", fillcolor="#ea9b62"] ;
7 -> 25 ;
26 [label="installment <= 75.165\ngini = 0.451\nsamples = 35\nvalue = [23, 12]", fillcolor="#f3c3a0"] ;
25 -> 26 ;
27 [label="revol.util <= 12.95\ngini = 0.133\nsamples = 14\nvalue = [13, 1]", fillcolor="#e78b48"] ;
26 -> 27 ;
28 [label="dti <= 12.3\ngini = 0.444\nsamples = 3\nvalue = [2, 1]", fillcolor="#f2c09c"] ;
27 -> 28 ;
29 [label="gini = 0.0\nsamples = 2\nvalue = [2, 0]", fillcolor="#e58139"] ;
28 -> 29 ;
30 [label="gini = 0.0\nsamples = 1\nvalue = [0, 1]", fillcolor="#399de5"] ;
28 -> 30 ;
31 [label="gini = 0.0\nsamples = 11\nvalue = [11, 0]", fillcolor="#e58139"] ;
27 -> 31 ;
32 [label="purpose_major_purchase <= 0.5\ngini = 0.499\nsamples = 21\nvalue = [10, 11]", fillcolor="#edf6fd"] ;
26 -> 32 ;
33 [label="days.with.cr.line <= 6344.479\ngini = 0.475\nsamples = 18\nvalue = [7, 11]", fillcolor="#b7dbf6"] ;
32 -> 33 ;
34 [label="log.annual.inc <= 9.302\ngini = 0.43\nsamples = 16\nvalue = [5, 11]", fillcolor="#93caf1"] ;
33 -> 34 ;
35 [label="inq.last.6mths <= 1.5\ngini = 0.375\nsamples = 4\nvalue = [3, 1]", fillcolor="#eeab7b"] ;
34 -> 35 ;
36 [label="gini = 0.0\nsamples = 3\nvalue = [3, 0]", fillcolor="#e58139"] ;
35 -> 36 ;
37 [label="gini = 0.0\nsamples = 1\nvalue = [0, 1]", fillcolor="#399de5"] ;
35 -> 37 ;
38 [label="purpose_home_improvement <= 0.5\ngini = 0.278\nsamples = 12\nvalue = [2, 10]", fillcolor="#61b1ea"] ;
34 -> 38 ;
39 [label="revol.util <= 13.1\ngini = 0.165\nsamples = 11\nvalue = [1, 10]", fillcolor="#4da7e8"] ;
38 -> 39 ;
40 [label="inq.last.6mths <= 0.5\ngini = 0.5\nsamples = 2\nvalue = [1, 1]", fillcolor="#ffffff"] ;
39 -> 40 ;
41 [label="gini = 0.0\nsamples = 1\nvalue = [1, 0]", fillcolor="#e58139"] ;
40 -> 41 ;
42 [label="gini = 0.0\nsamples = 1\nvalue = [0, 1]", fillcolor="#399de5"] ;
40 -> 42 ;
43 [label="gini = 0.0\nsamples = 9\nvalue = [0, 9]", fillcolor="#399de5"] ;
39 -> 43 ;
44 [label="gini = 0.0\nsamples = 1\nvalue = [1, 0]", fillcolor="#e58139"] ;
38 -> 44 ;
45 [label="gini = 0.0\nsamples = 2\nvalue = [2, 0]", fillcolor="#e58139"] ;
33 -> 45 ;
46 [label="gini = 0.0\nsamples = 3\nvalue = [3, 0]", fillcolor="#e58139"] ;
32 -> 46 ;
47 [label="revol.bal <= 5048.5\ngini = 0.252\nsamples = 257\nvalue = [219, 38]", fillcolor="#ea975b"] ;
25 -> 47 ;
48 [label="int.rate <= 0.195\ngini = 0.17\nsamples = 149\nvalue = [135, 14]", fillcolor="#e88e4e"] ;
47 -> 48 ;
49 [label="int.rate <= 0.141\ngini = 0.16\nsamples = 148\nvalue = [135, 13]", fillcolor="#e88d4c"] ;
48 -> 49 ;
50 [label="purpose_home_improvement <= 0.5\ngini = 0.105\nsamples = 108\nvalue = [102, 6]", fillcolor="#e78845"] ;
49 -> 50 ;
51 [label="fico <= 734.5\ngini = 0.059\nsamples = 99\nvalue = [96, 3]", fillcolor="#e6853f"] ;
50 -> 51 ;
52 [label="log.annual.inc <= 11.537\ngini = 0.041\nsamples = 95\nvalue = [93, 2]", fillcolor="#e6843d"] ;
51 -> 52 ;
53 [label="dti <= 18.56\ngini = 0.022\nsamples = 91\nvalue = [90, 1]", fillcolor="#e5823b"] ;
52 -> 53 ;
54 [label="gini = 0.0\nsamples = 80\nvalue = [80, 0]", fillcolor="#e58139"] ;
53 -> 54 ;
55 [label="days.with.cr.line <= 4395.0\ngini = 0.165\nsamples = 11\nvalue = [10, 1]", fillcolor="#e88e4d"] ;
53 -> 55 ;
56 [label="gini = 0.0\nsamples = 10\nvalue = [10, 0]", fillcolor="#e58139"] ;
55 -> 56 ;
57 [label="gini = 0.0\nsamples = 1\nvalue = [0, 1]", fillcolor="#399de5"] ;
55 -> 57 ;
58 [label="installment <= 183.355\ngini = 0.375\nsamples = 4\nvalue = [3, 1]", fillcolor="#eeab7b"] ;
52 -> 58 ;
59 [label="gini = 0.0\nsamples = 3\nvalue = [3, 0]", fillcolor="#e58139"] ;
58 -> 59 ;
60 [label="gini = 0.0\nsamples = 1\nvalue = [0, 1]", fillcolor="#399de5"] ;
58 -> 60 ;
61 [label="int.rate <= 0.109\ngini = 0.375\nsamples = 4\nvalue = [3, 1]", fillcolor="#eeab7b"] ;
51 -> 61 ;
62 [label="gini = 0.0\nsamples = 3\nvalue = [3, 0]", fillcolor="#e58139"] ;
61 -> 62 ;
63 [label="gini = 0.0\nsamples = 1\nvalue = [0, 1]", fillcolor="#399de5"] ;
61 -> 63 ;
64 [label="days.with.cr.line <= 3360.0\ngini = 0.444\nsamples = 9\nvalue = [6, 3]", fillcolor="#f2c09c"] ;
50 -> 64 ;
65 [label="gini = 0.0\nsamples = 4\nvalue = [4, 0]", fillcolor="#e58139"] ;
64 -> 65 ;
66 [label="dti <= 4.94\ngini = 0.48\nsamples = 5\nvalue = [2, 3]", fillcolor="#bddef6"] ;
64 -> 66 ;
67 [label="gini = 0.0\nsamples = 2\nvalue = [2, 0]", fillcolor="#e58139"] ;
66 -> 67 ;
68 [label="gini = 0.0\nsamples = 3\nvalue = [0, 3]", fillcolor="#399de5"] ;
66 -> 68 ;
69 [label="revol.bal <= 251.0\ngini = 0.289\nsamples = 40\nvalue = [33, 7]", fillcolor="#eb9c63"] ;
49 -> 69 ;
70 [label="gini = 0.0\nsamples = 1\nvalue = [0, 1]", fillcolor="#399de5"] ;
69 -> 70 ;
71 [label="log.annual.inc <= 11.057\ngini = 0.26\nsamples = 39\nvalue = [33, 6]", fillcolor="#ea985d"] ;
69 -> 71 ;
72 [label="log.annual.inc <= 11.018\ngini = 0.346\nsamples = 27\nvalue = [21, 6]", fillcolor="#eca572"] ;
71 -> 72 ;
73 [label="days.with.cr.line <= 4934.5\ngini = 0.269\nsamples = 25\nvalue = [21, 4]", fillcolor="#ea995f"] ;
72 -> 73 ;
74 [label="installment <= 284.93\ngini = 0.165\nsamples = 22\nvalue = [20, 2]", fillcolor="#e88e4d"] ;
73 -> 74 ;
75 [label="dti <= 1.56\ngini = 0.091\nsamples = 21\nvalue = [20, 1]", fillcolor="#e68743"] ;
74 -> 75 ;
76 [label="days.with.cr.line <= 960.042\ngini = 0.5\nsamples = 2\nvalue = [1, 1]", fillcolor="#ffffff"] ;
75 -> 76 ;
77 [label="gini = 0.0\nsamples = 1\nvalue = [0, 1]", fillcolor="#399de5"] ;
76 -> 77 ;
78 [label="gini = 0.0\nsamples = 1\nvalue = [1, 0]", fillcolor="#e58139"] ;
76 -> 78 ;
79 [label="gini = 0.0\nsamples = 19\nvalue = [19, 0]", fillcolor="#e58139"] ;
75 -> 79 ;
80 [label="gini = 0.0\nsamples = 1\nvalue = [0, 1]", fillcolor="#399de5"] ;
74 -> 80 ;
81 [label="purpose_major_purchase <= 0.5\ngini = 0.444\nsamples = 3\nvalue = [1, 2]", fillcolor="#9ccef2"] ;
73 -> 81 ;
82 [label="gini = 0.0\nsamples = 2\nvalue = [0, 2]", fillcolor="#399de5"] ;
81 -> 82 ;
83 [label="gini = 0.0\nsamples = 1\nvalue = [1, 0]", fillcolor="#e58139"] ;
81 -> 83 ;
84 [label="gini = 0.0\nsamples = 2\nvalue = [0, 2]", fillcolor="#399de5"] ;
72 -> 84 ;
85 [label="gini = 0.0\nsamples = 12\nvalue = [12, 0]", fillcolor="#e58139"] ;
71 -> 85 ;
86 [label="gini = 0.0\nsamples = 1\nvalue = [0, 1]", fillcolor="#399de5"] ;
48 -> 86 ;
87 [label="revol.util <= 35.0\ngini = 0.346\nsamples = 108\nvalue = [84, 24]", fillcolor="#eca572"] ;
47 -> 87 ;
88 [label="revol.util <= 34.35\ngini = 0.44\nsamples = 55\nvalue = [37, 18]", fillcolor="#f2be99"] ;
87 -> 88 ;
89 [label="inq.last.6mths <= 1.5\ngini = 0.403\nsamples = 50\nvalue = [36, 14]", fillcolor="#efb286"] ;
88 -> 89 ;
90 [label="gini = 0.0\nsamples = 12\nvalue = [12, 0]", fillcolor="#e58139"] ;
89 -> 90 ;
91 [label="dti <= 4.965\ngini = 0.465\nsamples = 38\nvalue = [24, 14]", fillcolor="#f4caac"] ;
89 -> 91 ;
92 [label="gini = 0.0\nsamples = 6\nvalue = [6, 0]", fillcolor="#e58139"] ;
91 -> 92 ;
93 [label="dti <= 10.525\ngini = 0.492\nsamples = 32\nvalue = [18, 14]", fillcolor="#f9e3d3"] ;
91 -> 93 ;
94 [label="dti <= 6.67\ngini = 0.346\nsamples = 9\nvalue = [2, 7]", fillcolor="#72b9ec"] ;
93 -> 94 ;
95 [label="days.with.cr.line <= 3644.542\ngini = 0.444\nsamples = 3\nvalue = [2, 1]", fillcolor="#f2c09c"] ;
94 -> 95 ;
96 [label="gini = 0.0\nsamples = 1\nvalue = [0, 1]", fillcolor="#399de5"] ;
95 -> 96 ;
97 [label="gini = 0.0\nsamples = 2\nvalue = [2, 0]", fillcolor="#e58139"] ;
95 -> 97 ;
98 [label="gini = 0.0\nsamples = 6\nvalue = [0, 6]", fillcolor="#399de5"] ;
94 -> 98 ;
99 [label="installment <= 338.95\ngini = 0.423\nsamples = 23\nvalue = [16, 7]", fillcolor="#f0b890"] ;
93 -> 99 ;
100 [label="revol.bal <= 5919.5\ngini = 0.363\nsamples = 21\nvalue = [16, 5]", fillcolor="#eda877"] ;
99 -> 100 ;
101 [label="dti <= 14.265\ngini = 0.444\nsamples = 3\nvalue = [1, 2]", fillcolor="#9ccef2"] ;
100 -> 101 ;
102 [label="gini = 0.0\nsamples = 1\nvalue = [1, 0]", fillcolor="#e58139"] ;
101 -> 102 ;
103 [label="gini = 0.0\nsamples = 2\nvalue = [0, 2]", fillcolor="#399de5"] ;
101 -> 103 ;
104 [label="dti <= 25.25\ngini = 0.278\nsamples = 18\nvalue = [15, 3]", fillcolor="#ea9a61"] ;
100 -> 104 ;
105 [label="installment <= 255.315\ngini = 0.208\nsamples = 17\nvalue = [15, 2]", fillcolor="#e89253"] ;
104 -> 105 ;
106 [label="installment <= 177.805\ngini = 0.408\nsamples = 7\nvalue = [5, 2]", fillcolor="#efb388"] ;
105 -> 106 ;
107 [label="gini = 0.0\nsamples = 4\nvalue = [4, 0]", fillcolor="#e58139"] ;
106 -> 107 ;
108 [label="revol.bal <= 6442.0\ngini = 0.444\nsamples = 3\nvalue = [1, 2]", fillcolor="#9ccef2"] ;
106 -> 108 ;
109 [label="gini = 0.0\nsamples = 1\nvalue = [1, 0]", fillcolor="#e58139"] ;
108 -> 109 ;
110 [label="gini = 0.0\nsamples = 2\nvalue = [0, 2]", fillcolor="#399de5"] ;
108 -> 110 ;
111 [label="gini = 0.0\nsamples = 10\nvalue = [10, 0]", fillcolor="#e58139"] ;
105 -> 111 ;
112 [label="gini = 0.0\nsamples = 1\nvalue = [0, 1]", fillcolor="#399de5"] ;
104 -> 112 ;
113 [label="gini = 0.0\nsamples = 2\nvalue = [0, 2]", fillcolor="#399de5"] ;
99 -> 113 ;
114 [label="int.rate <= 0.129\ngini = 0.32\nsamples = 5\nvalue = [1, 4]", fillcolor="#6ab6ec"] ;
88 -> 114 ;
115 [label="gini = 0.0\nsamples = 4\nvalue = [0, 4]", fillcolor="#399de5"] ;
114 -> 115 ;
116 [label="gini = 0.0\nsamples = 1\nvalue = [1, 0]", fillcolor="#e58139"] ;
114 -> 116 ;
117 [label="installment <= 324.65\ngini = 0.201\nsamples = 53\nvalue = [47, 6]", fillcolor="#e89152"] ;
87 -> 117 ;
118 [label="fico <= 734.5\ngini = 0.089\nsamples = 43\nvalue = [41, 2]", fillcolor="#e68743"] ;
117 -> 118 ;
119 [label="revol.bal <= 133762.0\ngini = 0.046\nsamples = 42\nvalue = [41, 1]", fillcolor="#e6843e"] ;
118 -> 119 ;
120 [label="gini = 0.0\nsamples = 40\nvalue = [40, 0]", fillcolor="#e58139"] ;
119 -> 120 ;
121 [label="days.with.cr.line <= 6435.0\ngini = 0.5\nsamples = 2\nvalue = [1, 1]", fillcolor="#ffffff"] ;
119 -> 121 ;
122 [label="gini = 0.0\nsamples = 1\nvalue = [0, 1]", fillcolor="#399de5"] ;
121 -> 122 ;
123 [label="gini = 0.0\nsamples = 1\nvalue = [1, 0]", fillcolor="#e58139"] ;
121 -> 123 ;
124 [label="gini = 0.0\nsamples = 1\nvalue = [0, 1]", fillcolor="#399de5"] ;
118 -> 124 ;
125 [label="revol.bal <= 7953.0\ngini = 0.48\nsamples = 10\nvalue = [6, 4]", fillcolor="#f6d5bd"] ;
117 -> 125 ;
126 [label="gini = 0.0\nsamples = 3\nvalue = [0, 3]", fillcolor="#399de5"] ;
125 -> 126 ;
127 [label="installment <= 329.3\ngini = 0.245\nsamples = 7\nvalue = [6, 1]", fillcolor="#e9965a"] ;
125 -> 127 ;
128 [label="gini = 0.0\nsamples = 1\nvalue = [0, 1]", fillcolor="#399de5"] ;
127 -> 128 ;
129 [label="gini = 0.0\nsamples = 6\nvalue = [6, 0]", fillcolor="#e58139"] ;
127 -> 129 ;
130 [label="days.with.cr.line <= 5342.0\ngini = 0.393\nsamples = 439\nvalue = [321, 118]", fillcolor="#efaf82"] ;
6 -> 130 ;
131 [label="days.with.cr.line <= 4814.979\ngini = 0.367\nsamples = 351\nvalue = [266, 85]", fillcolor="#eda978"] ;
130 -> 131 ;
132 [label="dti <= 2.295\ngini = 0.387\nsamples = 320\nvalue = [236, 84]", fillcolor="#eeae7f"] ;
131 -> 132 ;
133 [label="revol.bal <= 918.0\ngini = 0.486\nsamples = 12\nvalue = [5, 7]", fillcolor="#c6e3f8"] ;
132 -> 133 ;
134 [label="gini = 0.0\nsamples = 5\nvalue = [0, 5]", fillcolor="#399de5"] ;
133 -> 134 ;
135 [label="revol.bal <= 1769.5\ngini = 0.408\nsamples = 7\nvalue = [5, 2]", fillcolor="#efb388"] ;
133 -> 135 ;
136 [label="gini = 0.0\nsamples = 4\nvalue = [4, 0]", fillcolor="#e58139"] ;
135 -> 136 ;
137 [label="dti <= 2.18\ngini = 0.444\nsamples = 3\nvalue = [1, 2]", fillcolor="#9ccef2"] ;
135 -> 137 ;
138 [label="gini = 0.0\nsamples = 2\nvalue = [0, 2]", fillcolor="#399de5"] ;
137 -> 138 ;
139 [label="gini = 0.0\nsamples = 1\nvalue = [1, 0]", fillcolor="#e58139"] ;
137 -> 139 ;
140 [label="days.with.cr.line <= 2805.021\ngini = 0.375\nsamples = 308\nvalue = [231, 77]", fillcolor="#eeab7b"] ;
132 -> 140 ;
141 [label="int.rate <= 0.186\ngini = 0.299\nsamples = 142\nvalue = [116, 26]", fillcolor="#eb9d65"] ;
140 -> 141 ;
142 [label="fico <= 634.5\ngini = 0.284\nsamples = 140\nvalue = [116, 24]", fillcolor="#ea9b62"] ;
141 -> 142 ;
143 [label="revol.bal <= 2801.0\ngini = 0.444\nsamples = 3\nvalue = [1, 2]", fillcolor="#9ccef2"] ;
142 -> 143 ;
144 [label="gini = 0.0\nsamples = 1\nvalue = [1, 0]", fillcolor="#e58139"] ;
143 -> 144 ;
145 [label="gini = 0.0\nsamples = 2\nvalue = [0, 2]", fillcolor="#399de5"] ;
143 -> 145 ;
146 [label="log.annual.inc <= 11.656\ngini = 0.27\nsamples = 137\nvalue = [115, 22]", fillcolor="#ea995f"] ;
142 -> 146 ;
147 [label="dti <= 29.335\ngini = 0.261\nsamples = 136\nvalue = [115, 21]", fillcolor="#ea985d"] ;
146 -> 147 ;
148 [label="fico <= 669.5\ngini = 0.252\nsamples = 135\nvalue = [115, 20]", fillcolor="#ea975b"] ;
147 -> 148 ;
149 [label="installment <= 72.815\ngini = 0.317\nsamples = 86\nvalue = [69, 17]", fillcolor="#eba06a"] ;
148 -> 149 ;
150 [label="gini = 0.0\nsamples = 16\nvalue = [16, 0]", fillcolor="#e58139"] ;
149 -> 150 ;
151 [label="installment <= 106.64\ngini = 0.368\nsamples = 70\nvalue = [53, 17]", fillcolor="#eda979"] ;
149 -> 151 ;
152 [label="inq.last.6mths <= 0.5\ngini = 0.375\nsamples = 8\nvalue = [2, 6]", fillcolor="#7bbeee"] ;
151 -> 152 ;
153 [label="days.with.cr.line <= 570.0\ngini = 0.444\nsamples = 3\nvalue = [2, 1]", fillcolor="#f2c09c"] ;
152 -> 153 ;
154 [label="gini = 0.0\nsamples = 1\nvalue = [0, 1]", fillcolor="#399de5"] ;
153 -> 154 ;
155 [label="gini = 0.0\nsamples = 2\nvalue = [2, 0]", fillcolor="#e58139"] ;
153 -> 155 ;
156 [label="gini = 0.0\nsamples = 5\nvalue = [0, 5]", fillcolor="#399de5"] ;
152 -> 156 ;
157 [label="days.with.cr.line <= 1729.479\ngini = 0.292\nsamples = 62\nvalue = [51, 11]", fillcolor="#eb9c64"] ;
151 -> 157 ;
158 [label="installment <= 160.2\ngini = 0.397\nsamples = 33\nvalue = [24, 9]", fillcolor="#efb083"] ;
157 -> 158 ;
159 [label="gini = 0.0\nsamples = 11\nvalue = [11, 0]", fillcolor="#e58139"] ;
158 -> 159 ;
160 [label="purpose_debt_consolidation <= 0.5\ngini = 0.483\nsamples = 22\nvalue = [13, 9]", fillcolor="#f7d8c2"] ;
158 -> 160 ;
161 [label="revol.util <= 81.75\ngini = 0.32\nsamples = 10\nvalue = [8, 2]", fillcolor="#eca06a"] ;
160 -> 161 ;
162 [label="gini = 0.0\nsamples = 7\nvalue = [7, 0]", fillcolor="#e58139"] ;
161 -> 162 ;
163 [label="days.with.cr.line <= 1566.0\ngini = 0.444\nsamples = 3\nvalue = [1, 2]", fillcolor="#9ccef2"] ;
161 -> 163 ;
164 [label="gini = 0.0\nsamples = 2\nvalue = [0, 2]", fillcolor="#399de5"] ;
163 -> 164 ;
165 [label="gini = 0.0\nsamples = 1\nvalue = [1, 0]", fillcolor="#e58139"] ;
163 -> 165 ;
166 [label="int.rate <= 0.13\ngini = 0.486\nsamples = 12\nvalue = [5, 7]", fillcolor="#c6e3f8"] ;
160 -> 166 ;
167 [label="gini = 0.0\nsamples = 4\nvalue = [0, 4]", fillcolor="#399de5"] ;
166 -> 167 ;
168 [label="revol.bal <= 2795.0\ngini = 0.469\nsamples = 8\nvalue = [5, 3]", fillcolor="#f5cdb0"] ;
166 -> 168 ;
169 [label="gini = 0.0\nsamples = 2\nvalue = [0, 2]", fillcolor="#399de5"] ;
168 -> 169 ;
170 [label="revol.util <= 59.2\ngini = 0.278\nsamples = 6\nvalue = [5, 1]", fillcolor="#ea9a61"] ;
168 -> 170 ;
171 [label="gini = 0.0\nsamples = 1\nvalue = [0, 1]", fillcolor="#399de5"] ;
170 -> 171 ;
172 [label="gini = 0.0\nsamples = 5\nvalue = [5, 0]", fillcolor="#e58139"] ;
170 -> 172 ;
173 [label="purpose_educational <= 0.5\ngini = 0.128\nsamples = 29\nvalue = [27, 2]", fillcolor="#e78a48"] ;
157 -> 173 ;
174 [label="revol.bal <= 1263.0\ngini = 0.069\nsamples = 28\nvalue = [27, 1]", fillcolor="#e68640"] ;
173 -> 174 ;
175 [label="revol.bal <= 666.5\ngini = 0.444\nsamples = 3\nvalue = [2, 1]", fillcolor="#f2c09c"] ;
174 -> 175 ;
176 [label="gini = 0.0\nsamples = 2\nvalue = [2, 0]", fillcolor="#e58139"] ;
175 -> 176 ;
177 [label="gini = 0.0\nsamples = 1\nvalue = [0, 1]", fillcolor="#399de5"] ;
175 -> 177 ;
178 [label="gini = 0.0\nsamples = 25\nvalue = [25, 0]", fillcolor="#e58139"] ;
174 -> 178 ;
179 [label="gini = 0.0\nsamples = 1\nvalue = [0, 1]", fillcolor="#399de5"] ;
173 -> 179 ;
180 [label="log.annual.inc <= 8.444\ngini = 0.115\nsamples = 49\nvalue = [46, 3]", fillcolor="#e78946"] ;
148 -> 180 ;
181 [label="gini = 0.0\nsamples = 1\nvalue = [0, 1]", fillcolor="#399de5"] ;
180 -> 181 ;
182 [label="revol.util <= 62.05\ngini = 0.08\nsamples = 48\nvalue = [46, 2]", fillcolor="#e68642"] ;
180 -> 182 ;
183 [label="revol.util <= 60.3\ngini = 0.208\nsamples = 17\nvalue = [15, 2]", fillcolor="#e89253"] ;
182 -> 183 ;
184 [label="installment <= 91.1\ngini = 0.117\nsamples = 16\nvalue = [15, 1]", fillcolor="#e78946"] ;
183 -> 184 ;
185 [label="int.rate <= 0.144\ngini = 0.5\nsamples = 2\nvalue = [1, 1]", fillcolor="#ffffff"] ;
184 -> 185 ;
186 [label="gini = 0.0\nsamples = 1\nvalue = [1, 0]", fillcolor="#e58139"] ;
185 -> 186 ;
187 [label="gini = 0.0\nsamples = 1\nvalue = [0, 1]", fillcolor="#399de5"] ;
185 -> 187 ;
188 [label="gini = 0.0\nsamples = 14\nvalue = [14, 0]", fillcolor="#e58139"] ;
184 -> 188 ;
189 [label="gini = 0.0\nsamples = 1\nvalue = [0, 1]", fillcolor="#399de5"] ;
183 -> 189 ;
190 [label="gini = 0.0\nsamples = 31\nvalue = [31, 0]", fillcolor="#e58139"] ;
182 -> 190 ;
191 [label="gini = 0.0\nsamples = 1\nvalue = [0, 1]", fillcolor="#399de5"] ;
147 -> 191 ;
192 [label="gini = 0.0\nsamples = 1\nvalue = [0, 1]", fillcolor="#399de5"] ;
146 -> 192 ;
193 [label="gini = 0.0\nsamples = 2\nvalue = [0, 2]", fillcolor="#399de5"] ;
141 -> 193 ;
194 [label="log.annual.inc <= 9.851\ngini = 0.426\nsamples = 166\nvalue = [115, 51]", fillcolor="#f1b991"] ;
140 -> 194 ;
195 [label="gini = 0.0\nsamples = 5\nvalue = [0, 5]", fillcolor="#399de5"] ;
194 -> 195 ;
196 [label="inq.last.6mths <= 5.5\ngini = 0.408\nsamples = 161\nvalue = [115, 46]", fillcolor="#efb388"] ;
194 -> 196 ;
197 [label="revol.bal <= 8842.5\ngini = 0.38\nsamples = 149\nvalue = [111, 38]", fillcolor="#eeac7d"] ;
196 -> 197 ;
198 [label="dti <= 9.09\ngini = 0.474\nsamples = 57\nvalue = [35, 22]", fillcolor="#f5d0b5"] ;
197 -> 198 ;
199 [label="purpose_major_purchase <= 0.5\ngini = 0.133\nsamples = 14\nvalue = [13, 1]", fillcolor="#e78b48"] ;
198 -> 199 ;
200 [label="gini = 0.0\nsamples = 13\nvalue = [13, 0]", fillcolor="#e58139"] ;
199 -> 200 ;
201 [label="gini = 0.0\nsamples = 1\nvalue = [0, 1]", fillcolor="#399de5"] ;
199 -> 201 ;
202 [label="log.annual.inc <= 10.892\ngini = 0.5\nsamples = 43\nvalue = [22, 21]", fillcolor="#fef9f6"] ;
198 -> 202 ;
203 [label="revol.bal <= 4056.5\ngini = 0.48\nsamples = 35\nvalue = [21, 14]", fillcolor="#f6d5bd"] ;
202 -> 203 ;
204 [label="gini = 0.0\nsamples = 9\nvalue = [9, 0]", fillcolor="#e58139"] ;
203 -> 204 ;
205 [label="log.annual.inc <= 10.68\ngini = 0.497\nsamples = 26\nvalue = [12, 14]", fillcolor="#e3f1fb"] ;
203 -> 205 ;
206 [label="fico <= 659.5\ngini = 0.375\nsamples = 16\nvalue = [4, 12]", fillcolor="#7bbeee"] ;
205 -> 206 ;
207 [label="installment <= 253.585\ngini = 0.165\nsamples = 11\nvalue = [1, 10]", fillcolor="#4da7e8"] ;
206 -> 207 ;
208 [label="gini = 0.0\nsamples = 10\nvalue = [0, 10]", fillcolor="#399de5"] ;
207 -> 208 ;
209 [label="gini = 0.0\nsamples = 1\nvalue = [1, 0]", fillcolor="#e58139"] ;
207 -> 209 ;
210 [label="dti <= 16.85\ngini = 0.48\nsamples = 5\nvalue = [3, 2]", fillcolor="#f6d5bd"] ;
206 -> 210 ;
211 [label="gini = 0.0\nsamples = 2\nvalue = [0, 2]", fillcolor="#399de5"] ;
210 -> 211 ;
212 [label="gini = 0.0\nsamples = 3\nvalue = [3, 0]", fillcolor="#e58139"] ;
210 -> 212 ;
213 [label="days.with.cr.line <= 4559.979\ngini = 0.32\nsamples = 10\nvalue = [8, 2]", fillcolor="#eca06a"] ;
205 -> 213 ;
214 [label="gini = 0.0\nsamples = 7\nvalue = [7, 0]", fillcolor="#e58139"] ;
213 -> 214 ;
215 [label="log.annual.inc <= 10.809\ngini = 0.444\nsamples = 3\nvalue = [1, 2]", fillcolor="#9ccef2"] ;
213 -> 215 ;
216 [label="gini = 0.0\nsamples = 2\nvalue = [0, 2]", fillcolor="#399de5"] ;
215 -> 216 ;
217 [label="gini = 0.0\nsamples = 1\nvalue = [1, 0]", fillcolor="#e58139"] ;
215 -> 217 ;
218 [label="log.annual.inc <= 11.359\ngini = 0.219\nsamples = 8\nvalue = [1, 7]", fillcolor="#55abe9"] ;
202 -> 218 ;
219 [label="gini = 0.0\nsamples = 7\nvalue = [0, 7]", fillcolor="#399de5"] ;
218 -> 219 ;
220 [label="gini = 0.0\nsamples = 1\nvalue = [1, 0]", fillcolor="#e58139"] ;
218 -> 220 ;
221 [label="log.annual.inc <= 11.368\ngini = 0.287\nsamples = 92\nvalue = [76, 16]", fillcolor="#ea9c63"] ;
197 -> 221 ;
222 [label="int.rate <= 0.164\ngini = 0.187\nsamples = 67\nvalue = [60, 7]", fillcolor="#e89050"] ;
221 -> 222 ;
223 [label="installment <= 335.79\ngini = 0.126\nsamples = 59\nvalue = [55, 4]", fillcolor="#e78a47"] ;
222 -> 223 ;
224 [label="log.annual.inc <= 10.274\ngini = 0.075\nsamples = 51\nvalue = [49, 2]", fillcolor="#e68641"] ;
223 -> 224 ;
225 [label="fico <= 682.0\ngini = 0.444\nsamples = 3\nvalue = [2, 1]", fillcolor="#f2c09c"] ;
224 -> 225 ;
226 [label="gini = 0.0\nsamples = 1\nvalue = [0, 1]", fillcolor="#399de5"] ;
225 -> 226 ;
227 [label="gini = 0.0\nsamples = 2\nvalue = [2, 0]", fillcolor="#e58139"] ;
225 -> 227 ;
228 [label="dti <= 7.455\ngini = 0.041\nsamples = 48\nvalue = [47, 1]", fillcolor="#e6843d"] ;
224 -> 228 ;
229 [label="fico <= 672.0\ngini = 0.444\nsamples = 3\nvalue = [2, 1]", fillcolor="#f2c09c"] ;
228 -> 229 ;
230 [label="gini = 0.0\nsamples = 1\nvalue = [0, 1]", fillcolor="#399de5"] ;
229 -> 230 ;
231 [label="gini = 0.0\nsamples = 2\nvalue = [2, 0]", fillcolor="#e58139"] ;
229 -> 231 ;
232 [label="gini = 0.0\nsamples = 45\nvalue = [45, 0]", fillcolor="#e58139"] ;
228 -> 232 ;
233 [label="int.rate <= 0.133\ngini = 0.375\nsamples = 8\nvalue = [6, 2]", fillcolor="#eeab7b"] ;
223 -> 233 ;
234 [label="gini = 0.0\nsamples = 2\nvalue = [0, 2]", fillcolor="#399de5"] ;
233 -> 234 ;
235 [label="gini = 0.0\nsamples = 6\nvalue = [6, 0]", fillcolor="#e58139"] ;
233 -> 235 ;
236 [label="int.rate <= 0.17\ngini = 0.469\nsamples = 8\nvalue = [5, 3]", fillcolor="#f5cdb0"] ;
222 -> 236 ;
237 [label="gini = 0.0\nsamples = 2\nvalue = [0, 2]", fillcolor="#399de5"] ;
236 -> 237 ;
238 [label="delinq.2yrs <= 0.5\ngini = 0.278\nsamples = 6\nvalue = [5, 1]", fillcolor="#ea9a61"] ;
236 -> 238 ;
239 [label="gini = 0.0\nsamples = 5\nvalue = [5, 0]", fillcolor="#e58139"] ;
238 -> 239 ;
240 [label="gini = 0.0\nsamples = 1\nvalue = [0, 1]", fillcolor="#399de5"] ;
238 -> 240 ;
241 [label="log.annual.inc <= 11.401\ngini = 0.461\nsamples = 25\nvalue = [16, 9]", fillcolor="#f4c8a8"] ;
221 -> 241 ;
242 [label="gini = 0.0\nsamples = 4\nvalue = [0, 4]", fillcolor="#399de5"] ;
241 -> 242 ;
243 [label="revol.util <= 94.5\ngini = 0.363\nsamples = 21\nvalue = [16, 5]", fillcolor="#eda877"] ;
241 -> 243 ;
244 [label="days.with.cr.line <= 4544.979\ngini = 0.208\nsamples = 17\nvalue = [15, 2]", fillcolor="#e89253"] ;
243 -> 244 ;
245 [label="dti <= 26.71\ngini = 0.117\nsamples = 16\nvalue = [15, 1]", fillcolor="#e78946"] ;
244 -> 245 ;
246 [label="gini = 0.0\nsamples = 14\nvalue = [14, 0]", fillcolor="#e58139"] ;
245 -> 246 ;
247 [label="int.rate <= 0.165\ngini = 0.5\nsamples = 2\nvalue = [1, 1]", fillcolor="#ffffff"] ;
245 -> 247 ;
248 [label="gini = 0.0\nsamples = 1\nvalue = [0, 1]", fillcolor="#399de5"] ;
247 -> 248 ;
249 [label="gini = 0.0\nsamples = 1\nvalue = [1, 0]", fillcolor="#e58139"] ;
247 -> 249 ;
250 [label="gini = 0.0\nsamples = 1\nvalue = [0, 1]", fillcolor="#399de5"] ;
244 -> 250 ;
251 [label="revol.bal <= 35520.0\ngini = 0.375\nsamples = 4\nvalue = [1, 3]", fillcolor="#7bbeee"] ;
243 -> 251 ;
252 [label="gini = 0.0\nsamples = 3\nvalue = [0, 3]", fillcolor="#399de5"] ;
251 -> 252 ;
253 [label="gini = 0.0\nsamples = 1\nvalue = [1, 0]", fillcolor="#e58139"] ;
251 -> 253 ;
254 [label="dti <= 18.345\ngini = 0.444\nsamples = 12\nvalue = [4, 8]", fillcolor="#9ccef2"] ;
196 -> 254 ;
255 [label="gini = 0.0\nsamples = 6\nvalue = [0, 6]", fillcolor="#399de5"] ;
254 -> 255 ;
256 [label="log.annual.inc <= 10.688\ngini = 0.444\nsamples = 6\nvalue = [4, 2]", fillcolor="#f2c09c"] ;
254 -> 256 ;
257 [label="gini = 0.0\nsamples = 3\nvalue = [3, 0]", fillcolor="#e58139"] ;
256 -> 257 ;
258 [label="installment <= 216.975\ngini = 0.444\nsamples = 3\nvalue = [1, 2]", fillcolor="#9ccef2"] ;
256 -> 258 ;
259 [label="gini = 0.0\nsamples = 1\nvalue = [1, 0]", fillcolor="#e58139"] ;
258 -> 259 ;
260 [label="gini = 0.0\nsamples = 2\nvalue = [0, 2]", fillcolor="#399de5"] ;
258 -> 260 ;
261 [label="inq.last.6mths <= 4.5\ngini = 0.062\nsamples = 31\nvalue = [30, 1]", fillcolor="#e68540"] ;
131 -> 261 ;
262 [label="gini = 0.0\nsamples = 25\nvalue = [25, 0]", fillcolor="#e58139"] ;
261 -> 262 ;
263 [label="log.annual.inc <= 10.869\ngini = 0.278\nsamples = 6\nvalue = [5, 1]", fillcolor="#ea9a61"] ;
261 -> 263 ;
264 [label="gini = 0.0\nsamples = 1\nvalue = [0, 1]", fillcolor="#399de5"] ;
263 -> 264 ;
265 [label="gini = 0.0\nsamples = 5\nvalue = [5, 0]", fillcolor="#e58139"] ;
263 -> 265 ;
266 [label="days.with.cr.line <= 5579.5\ngini = 0.469\nsamples = 88\nvalue = [55, 33]", fillcolor="#f5cdb0"] ;
130 -> 266 ;
267 [label="gini = 0.0\nsamples = 7\nvalue = [0, 7]", fillcolor="#399de5"] ;
266 -> 267 ;
268 [label="revol.util <= 57.15\ngini = 0.436\nsamples = 81\nvalue = [55, 26]", fillcolor="#f1bd97"] ;
266 -> 268 ;
269 [label="fico <= 647.0\ngini = 0.278\nsamples = 6\nvalue = [1, 5]", fillcolor="#61b1ea"] ;
268 -> 269 ;
270 [label="gini = 0.0\nsamples = 1\nvalue = [1, 0]", fillcolor="#e58139"] ;
269 -> 270 ;
271 [label="gini = 0.0\nsamples = 5\nvalue = [0, 5]", fillcolor="#399de5"] ;
269 -> 271 ;
272 [label="revol.util <= 80.25\ngini = 0.403\nsamples = 75\nvalue = [54, 21]", fillcolor="#efb286"] ;
268 -> 272 ;
273 [label="installment <= 137.93\ngini = 0.234\nsamples = 37\nvalue = [32, 5]", fillcolor="#e99558"] ;
272 -> 273 ;
274 [label="revol.util <= 69.3\ngini = 0.48\nsamples = 10\nvalue = [6, 4]", fillcolor="#f6d5bd"] ;
273 -> 274 ;
275 [label="installment <= 86.445\ngini = 0.444\nsamples = 6\nvalue = [2, 4]", fillcolor="#9ccef2"] ;
274 -> 275 ;
276 [label="gini = 0.0\nsamples = 2\nvalue = [2, 0]", fillcolor="#e58139"] ;
275 -> 276 ;
277 [label="gini = 0.0\nsamples = 4\nvalue = [0, 4]", fillcolor="#399de5"] ;
275 -> 277 ;
278 [label="gini = 0.0\nsamples = 4\nvalue = [4, 0]", fillcolor="#e58139"] ;
274 -> 278 ;
279 [label="revol.util <= 60.3\ngini = 0.071\nsamples = 27\nvalue = [26, 1]", fillcolor="#e68641"] ;
273 -> 279 ;
280 [label="dti <= 22.995\ngini = 0.32\nsamples = 5\nvalue = [4, 1]", fillcolor="#eca06a"] ;
279 -> 280 ;
281 [label="gini = 0.0\nsamples = 4\nvalue = [4, 0]", fillcolor="#e58139"] ;
280 -> 281 ;
282 [label="gini = 0.0\nsamples = 1\nvalue = [0, 1]", fillcolor="#399de5"] ;
280 -> 282 ;
283 [label="gini = 0.0\nsamples = 22\nvalue = [22, 0]", fillcolor="#e58139"] ;
279 -> 283 ;
284 [label="installment <= 121.115\ngini = 0.488\nsamples = 38\nvalue = [22, 16]", fillcolor="#f8ddc9"] ;
272 -> 284 ;
285 [label="gini = 0.0\nsamples = 6\nvalue = [6, 0]", fillcolor="#e58139"] ;
284 -> 285 ;
286 [label="dti <= 17.185\ngini = 0.5\nsamples = 32\nvalue = [16, 16]", fillcolor="#ffffff"] ;
284 -> 286 ;
287 [label="log.annual.inc <= 11.67\ngini = 0.355\nsamples = 13\nvalue = [10, 3]", fillcolor="#eda774"] ;
286 -> 287 ;
288 [label="gini = 0.0\nsamples = 9\nvalue = [9, 0]", fillcolor="#e58139"] ;
287 -> 288 ;
289 [label="purpose_debt_consolidation <= 0.5\ngini = 0.375\nsamples = 4\nvalue = [1, 3]", fillcolor="#7bbeee"] ;
287 -> 289 ;
290 [label="gini = 0.0\nsamples = 3\nvalue = [0, 3]", fillcolor="#399de5"] ;
289 -> 290 ;
291 [label="gini = 0.0\nsamples = 1\nvalue = [1, 0]", fillcolor="#e58139"] ;
289 -> 291 ;
292 [label="delinq.2yrs <= 0.5\ngini = 0.432\nsamples = 19\nvalue = [6, 13]", fillcolor="#94caf1"] ;
286 -> 292 ;
293 [label="days.with.cr.line <= 6104.479\ngini = 0.305\nsamples = 16\nvalue = [3, 13]", fillcolor="#67b4eb"] ;
292 -> 293 ;
294 [label="gini = 0.0\nsamples = 2\nvalue = [2, 0]", fillcolor="#e58139"] ;
293 -> 294 ;
295 [label="fico <= 709.5\ngini = 0.133\nsamples = 14\nvalue = [1, 13]", fillcolor="#48a5e7"] ;
293 -> 295 ;
296 [label="gini = 0.0\nsamples = 12\nvalue = [0, 12]", fillcolor="#399de5"] ;
295 -> 296 ;
297 [label="int.rate <= 0.11\ngini = 0.5\nsamples = 2\nvalue = [1, 1]", fillcolor="#ffffff"] ;
295 -> 297 ;
298 [label="gini = 0.0\nsamples = 1\nvalue = [0, 1]", fillcolor="#399de5"] ;
297 -> 298 ;
299 [label="gini = 0.0\nsamples = 1\nvalue = [1, 0]", fillcolor="#e58139"] ;
297 -> 299 ;
300 [label="gini = 0.0\nsamples = 3\nvalue = [3, 0]", fillcolor="#e58139"] ;
292 -> 300 ;
301 [label="installment <= 240.71\ngini = 0.499\nsamples = 21\nvalue = [11, 10]", fillcolor="#fdf4ed"] ;
5 -> 301 ;
302 [label="int.rate <= 0.127\ngini = 0.32\nsamples = 10\nvalue = [8, 2]", fillcolor="#eca06a"] ;
301 -> 302 ;
303 [label="revol.util <= 79.8\ngini = 0.444\nsamples = 3\nvalue = [1, 2]", fillcolor="#9ccef2"] ;
302 -> 303 ;
304 [label="gini = 0.0\nsamples = 2\nvalue = [0, 2]", fillcolor="#399de5"] ;
303 -> 304 ;
305 [label="gini = 0.0\nsamples = 1\nvalue = [1, 0]", fillcolor="#e58139"] ;
303 -> 305 ;
306 [label="gini = 0.0\nsamples = 7\nvalue = [7, 0]", fillcolor="#e58139"] ;
302 -> 306 ;
307 [label="fico <= 714.5\ngini = 0.397\nsamples = 11\nvalue = [3, 8]", fillcolor="#83c2ef"] ;
301 -> 307 ;
308 [label="installment <= 329.0\ngini = 0.198\nsamples = 9\nvalue = [1, 8]", fillcolor="#52a9e8"] ;
307 -> 308 ;
309 [label="gini = 0.0\nsamples = 8\nvalue = [0, 8]", fillcolor="#399de5"] ;
308 -> 309 ;
310 [label="gini = 0.0\nsamples = 1\nvalue = [1, 0]", fillcolor="#e58139"] ;
308 -> 310 ;
311 [label="gini = 0.0\nsamples = 2\nvalue = [2, 0]", fillcolor="#e58139"] ;
307 -> 311 ;
312 [label="int.rate <= 0.16\ngini = 0.465\nsamples = 128\nvalue = [81, 47]", fillcolor="#f4caac"] ;
2 -> 312 ;
313 [label="int.rate <= 0.153\ngini = 0.496\nsamples = 94\nvalue = [51, 43]", fillcolor="#fbebe0"] ;
312 -> 313 ;
314 [label="days.with.cr.line <= 6373.979\ngini = 0.489\nsamples = 89\nvalue = [51, 38]", fillcolor="#f8dfcd"] ;
313 -> 314 ;
315 [label="days.with.cr.line <= 1125.021\ngini = 0.47\nsamples = 77\nvalue = [48, 29]", fillcolor="#f5cdb1"] ;
314 -> 315 ;
316 [label="int.rate <= 0.118\ngini = 0.408\nsamples = 7\nvalue = [2, 5]", fillcolor="#88c4ef"] ;
315 -> 316 ;
317 [label="dti <= 9.81\ngini = 0.444\nsamples = 3\nvalue = [2, 1]", fillcolor="#f2c09c"] ;
316 -> 317 ;
318 [label="gini = 0.0\nsamples = 2\nvalue = [2, 0]", fillcolor="#e58139"] ;
317 -> 318 ;
319 [label="gini = 0.0\nsamples = 1\nvalue = [0, 1]", fillcolor="#399de5"] ;
317 -> 319 ;
320 [label="gini = 0.0\nsamples = 4\nvalue = [0, 4]", fillcolor="#399de5"] ;
316 -> 320 ;
321 [label="installment <= 259.77\ngini = 0.451\nsamples = 70\nvalue = [46, 24]", fillcolor="#f3c3a0"] ;
315 -> 321 ;
322 [label="installment <= 171.59\ngini = 0.486\nsamples = 53\nvalue = [31, 22]", fillcolor="#f7dac6"] ;
321 -> 322 ;
323 [label="revol.bal <= 38.5\ngini = 0.415\nsamples = 34\nvalue = [24, 10]", fillcolor="#f0b58b"] ;
322 -> 323 ;
324 [label="gini = 0.0\nsamples = 3\nvalue = [0, 3]", fillcolor="#399de5"] ;
323 -> 324 ;
325 [label="delinq.2yrs <= 1.5\ngini = 0.35\nsamples = 31\nvalue = [24, 7]", fillcolor="#eda673"] ;
323 -> 325 ;
326 [label="purpose_debt_consolidation <= 0.5\ngini = 0.285\nsamples = 29\nvalue = [24, 5]", fillcolor="#ea9b62"] ;
325 -> 326 ;
327 [label="delinq.2yrs <= 0.5\ngini = 0.091\nsamples = 21\nvalue = [20, 1]", fillcolor="#e68743"] ;
326 -> 327 ;
328 [label="gini = 0.0\nsamples = 19\nvalue = [19, 0]", fillcolor="#e58139"] ;
327 -> 328 ;
329 [label="revol.bal <= 2793.0\ngini = 0.5\nsamples = 2\nvalue = [1, 1]", fillcolor="#ffffff"] ;
327 -> 329 ;
330 [label="gini = 0.0\nsamples = 1\nvalue = [1, 0]", fillcolor="#e58139"] ;
329 -> 330 ;
331 [label="gini = 0.0\nsamples = 1\nvalue = [0, 1]", fillcolor="#399de5"] ;
329 -> 331 ;
332 [label="days.with.cr.line <= 3209.542\ngini = 0.5\nsamples = 8\nvalue = [4, 4]", fillcolor="#ffffff"] ;
326 -> 332 ;
333 [label="gini = 0.0\nsamples = 3\nvalue = [3, 0]", fillcolor="#e58139"] ;
332 -> 333 ;
334 [label="revol.bal <= 11774.5\ngini = 0.32\nsamples = 5\nvalue = [1, 4]", fillcolor="#6ab6ec"] ;
332 -> 334 ;
335 [label="gini = 0.0\nsamples = 4\nvalue = [0, 4]", fillcolor="#399de5"] ;
334 -> 335 ;
336 [label="gini = 0.0\nsamples = 1\nvalue = [1, 0]", fillcolor="#e58139"] ;
334 -> 336 ;
337 [label="gini = 0.0\nsamples = 2\nvalue = [0, 2]", fillcolor="#399de5"] ;
325 -> 337 ;
338 [label="fico <= 694.5\ngini = 0.465\nsamples = 19\nvalue = [7, 12]", fillcolor="#acd6f4"] ;
322 -> 338 ;
339 [label="revol.util <= 36.85\ngini = 0.355\nsamples = 13\nvalue = [3, 10]", fillcolor="#74baed"] ;
338 -> 339 ;
340 [label="fico <= 674.5\ngini = 0.5\nsamples = 6\nvalue = [3, 3]", fillcolor="#ffffff"] ;
339 -> 340 ;
341 [label="gini = 0.0\nsamples = 2\nvalue = [2, 0]", fillcolor="#e58139"] ;
340 -> 341 ;
342 [label="days.with.cr.line <= 4005.021\ngini = 0.375\nsamples = 4\nvalue = [1, 3]", fillcolor="#7bbeee"] ;
340 -> 342 ;
343 [label="gini = 0.0\nsamples = 3\nvalue = [0, 3]", fillcolor="#399de5"] ;
342 -> 343 ;
344 [label="gini = 0.0\nsamples = 1\nvalue = [1, 0]", fillcolor="#e58139"] ;
342 -> 344 ;
345 [label="gini = 0.0\nsamples = 7\nvalue = [0, 7]", fillcolor="#399de5"] ;
339 -> 345 ;
346 [label="revol.bal <= 18114.0\ngini = 0.444\nsamples = 6\nvalue = [4, 2]", fillcolor="#f2c09c"] ;
338 -> 346 ;
347 [label="gini = 0.0\nsamples = 3\nvalue = [3, 0]", fillcolor="#e58139"] ;
346 -> 347 ;
348 [label="fico <= 709.5\ngini = 0.444\nsamples = 3\nvalue = [1, 2]", fillcolor="#9ccef2"] ;
346 -> 348 ;
349 [label="gini = 0.0\nsamples = 1\nvalue = [1, 0]", fillcolor="#e58139"] ;
348 -> 349 ;
350 [label="gini = 0.0\nsamples = 2\nvalue = [0, 2]", fillcolor="#399de5"] ;
348 -> 350 ;
351 [label="revol.bal <= 29383.5\ngini = 0.208\nsamples = 17\nvalue = [15, 2]", fillcolor="#e89253"] ;
321 -> 351 ;
352 [label="revol.bal <= 1545.5\ngini = 0.117\nsamples = 16\nvalue = [15, 1]", fillcolor="#e78946"] ;
351 -> 352 ;
353 [label="installment <= 323.255\ngini = 0.444\nsamples = 3\nvalue = [2, 1]", fillcolor="#f2c09c"] ;
352 -> 353 ;
354 [label="gini = 0.0\nsamples = 2\nvalue = [2, 0]", fillcolor="#e58139"] ;
353 -> 354 ;
355 [label="gini = 0.0\nsamples = 1\nvalue = [0, 1]", fillcolor="#399de5"] ;
353 -> 355 ;
356 [label="gini = 0.0\nsamples = 13\nvalue = [13, 0]", fillcolor="#e58139"] ;
352 -> 356 ;
357 [label="gini = 0.0\nsamples = 1\nvalue = [0, 1]", fillcolor="#399de5"] ;
351 -> 357 ;
358 [label="fico <= 679.5\ngini = 0.375\nsamples = 12\nvalue = [3, 9]", fillcolor="#7bbeee"] ;
314 -> 358 ;
359 [label="gini = 0.0\nsamples = 3\nvalue = [3, 0]", fillcolor="#e58139"] ;
358 -> 359 ;
360 [label="gini = 0.0\nsamples = 9\nvalue = [0, 9]", fillcolor="#399de5"] ;
358 -> 360 ;
361 [label="gini = 0.0\nsamples = 5\nvalue = [0, 5]", fillcolor="#399de5"] ;
313 -> 361 ;
362 [label="purpose_educational <= 0.5\ngini = 0.208\nsamples = 34\nvalue = [30, 4]", fillcolor="#e89253"] ;
312 -> 362 ;
363 [label="fico <= 659.5\ngini = 0.165\nsamples = 33\nvalue = [30, 3]", fillcolor="#e88e4d"] ;
362 -> 363 ;
364 [label="days.with.cr.line <= 4380.0\ngini = 0.444\nsamples = 6\nvalue = [4, 2]", fillcolor="#f2c09c"] ;
363 -> 364 ;
365 [label="gini = 0.0\nsamples = 4\nvalue = [4, 0]", fillcolor="#e58139"] ;
364 -> 365 ;
366 [label="gini = 0.0\nsamples = 2\nvalue = [0, 2]", fillcolor="#399de5"] ;
364 -> 366 ;
367 [label="fico <= 669.5\ngini = 0.071\nsamples = 27\nvalue = [26, 1]", fillcolor="#e68641"] ;
363 -> 367 ;
368 [label="inq.last.6mths <= 8.5\ngini = 0.198\nsamples = 9\nvalue = [8, 1]", fillcolor="#e89152"] ;
367 -> 368 ;
369 [label="gini = 0.0\nsamples = 7\nvalue = [7, 0]", fillcolor="#e58139"] ;
368 -> 369 ;
370 [label="revol.bal <= 13015.5\ngini = 0.5\nsamples = 2\nvalue = [1, 1]", fillcolor="#ffffff"] ;
368 -> 370 ;
371 [label="gini = 0.0\nsamples = 1\nvalue = [0, 1]", fillcolor="#399de5"] ;
370 -> 371 ;
372 [label="gini = 0.0\nsamples = 1\nvalue = [1, 0]", fillcolor="#e58139"] ;
370 -> 372 ;
373 [label="gini = 0.0\nsamples = 18\nvalue = [18, 0]", fillcolor="#e58139"] ;
367 -> 373 ;
374 [label="gini = 0.0\nsamples = 1\nvalue = [0, 1]", fillcolor="#399de5"] ;
362 -> 374 ;
375 [label="log.annual.inc <= 10.381\ngini = 0.464\nsamples = 374\nvalue = [237, 137]", fillcolor="#f4caab"] ;
1 -> 375 ;
376 [label="revol.util <= 84.9\ngini = 0.291\nsamples = 17\nvalue = [3, 14]", fillcolor="#63b2eb"] ;
375 -> 376 ;
377 [label="log.annual.inc <= 9.938\ngini = 0.133\nsamples = 14\nvalue = [1, 13]", fillcolor="#48a5e7"] ;
376 -> 377 ;
378 [label="gini = 0.0\nsamples = 1\nvalue = [1, 0]", fillcolor="#e58139"] ;
377 -> 378 ;
379 [label="gini = 0.0\nsamples = 13\nvalue = [0, 13]", fillcolor="#399de5"] ;
377 -> 379 ;
380 [label="purpose_small_business <= 0.5\ngini = 0.444\nsamples = 3\nvalue = [2, 1]", fillcolor="#f2c09c"] ;
376 -> 380 ;
381 [label="gini = 0.0\nsamples = 2\nvalue = [2, 0]", fillcolor="#e58139"] ;
380 -> 381 ;
382 [label="gini = 0.0\nsamples = 1\nvalue = [0, 1]", fillcolor="#399de5"] ;
380 -> 382 ;
383 [label="int.rate <= 0.174\ngini = 0.452\nsamples = 357\nvalue = [234, 123]", fillcolor="#f3c3a1"] ;
375 -> 383 ;
384 [label="revol.bal <= 387190.5\ngini = 0.427\nsamples = 291\nvalue = [201, 90]", fillcolor="#f1b992"] ;
383 -> 384 ;
385 [label="days.with.cr.line <= 7634.979\ngini = 0.42\nsamples = 287\nvalue = [201, 86]", fillcolor="#f0b78e"] ;
384 -> 385 ;
386 [label="revol.util <= 97.15\ngini = 0.444\nsamples = 247\nvalue = [165, 82]", fillcolor="#f2c09b"] ;
385 -> 386 ;
387 [label="dti <= 1.475\ngini = 0.435\nsamples = 241\nvalue = [164, 77]", fillcolor="#f1bc96"] ;
386 -> 387 ;
388 [label="gini = 0.0\nsamples = 12\nvalue = [12, 0]", fillcolor="#e58139"] ;
387 -> 388 ;
389 [label="installment <= 702.335\ngini = 0.446\nsamples = 229\nvalue = [152, 77]", fillcolor="#f2c19d"] ;
387 -> 389 ;
390 [label="installment <= 352.565\ngini = 0.419\nsamples = 191\nvalue = [134, 57]", fillcolor="#f0b78d"] ;
389 -> 390 ;
391 [label="fico <= 697.0\ngini = 0.278\nsamples = 6\nvalue = [1, 5]", fillcolor="#61b1ea"] ;
390 -> 391 ;
392 [label="gini = 0.0\nsamples = 5\nvalue = [0, 5]", fillcolor="#399de5"] ;
391 -> 392 ;
393 [label="gini = 0.0\nsamples = 1\nvalue = [1, 0]", fillcolor="#e58139"] ;
391 -> 393 ;
394 [label="log.annual.inc <= 11.018\ngini = 0.404\nsamples = 185\nvalue = [133, 52]", fillcolor="#efb286"] ;
390 -> 394 ;
395 [label="log.annual.inc <= 10.994\ngini = 0.479\nsamples = 63\nvalue = [38, 25]", fillcolor="#f6d4bb"] ;
394 -> 395 ;
396 [label="revol.util <= 55.75\ngini = 0.444\nsamples = 57\nvalue = [38, 19]", fillcolor="#f2c09c"] ;
395 -> 396 ;
397 [label="revol.util <= 25.25\ngini = 0.499\nsamples = 27\nvalue = [13, 14]", fillcolor="#f1f8fd"] ;
396 -> 397 ;
398 [label="gini = 0.0\nsamples = 4\nvalue = [4, 0]", fillcolor="#e58139"] ;
397 -> 398 ;
399 [label="fico <= 719.5\ngini = 0.476\nsamples = 23\nvalue = [9, 14]", fillcolor="#b8dcf6"] ;
397 -> 399 ;
400 [label="revol.bal <= 9599.0\ngini = 0.444\nsamples = 21\nvalue = [7, 14]", fillcolor="#9ccef2"] ;
399 -> 400 ;
401 [label="purpose_debt_consolidation <= 0.5\ngini = 0.494\nsamples = 9\nvalue = [5, 4]", fillcolor="#fae6d7"] ;
400 -> 401 ;
402 [label="int.rate <= 0.134\ngini = 0.32\nsamples = 5\nvalue = [1, 4]", fillcolor="#6ab6ec"] ;
401 -> 402 ;
403 [label="gini = 0.0\nsamples = 1\nvalue = [1, 0]", fillcolor="#e58139"] ;
402 -> 403 ;
404 [label="gini = 0.0\nsamples = 4\nvalue = [0, 4]", fillcolor="#399de5"] ;
402 -> 404 ;
405 [label="gini = 0.0\nsamples = 4\nvalue = [4, 0]", fillcolor="#e58139"] ;
401 -> 405 ;
406 [label="log.annual.inc <= 10.477\ngini = 0.278\nsamples = 12\nvalue = [2, 10]", fillcolor="#61b1ea"] ;
400 -> 406 ;
407 [label="gini = 0.0\nsamples = 1\nvalue = [1, 0]", fillcolor="#e58139"] ;
406 -> 407 ;
408 [label="log.annual.inc <= 10.944\ngini = 0.165\nsamples = 11\nvalue = [1, 10]", fillcolor="#4da7e8"] ;
406 -> 408 ;
409 [label="gini = 0.0\nsamples = 10\nvalue = [0, 10]", fillcolor="#399de5"] ;
408 -> 409 ;
410 [label="gini = 0.0\nsamples = 1\nvalue = [1, 0]", fillcolor="#e58139"] ;
408 -> 410 ;
411 [label="gini = 0.0\nsamples = 2\nvalue = [2, 0]", fillcolor="#e58139"] ;
399 -> 411 ;
412 [label="days.with.cr.line <= 1769.958\ngini = 0.278\nsamples = 30\nvalue = [25, 5]", fillcolor="#ea9a61"] ;
396 -> 412 ;
413 [label="installment <= 370.22\ngini = 0.32\nsamples = 5\nvalue = [1, 4]", fillcolor="#6ab6ec"] ;
412 -> 413 ;
414 [label="gini = 0.0\nsamples = 1\nvalue = [1, 0]", fillcolor="#e58139"] ;
413 -> 414 ;
415 [label="gini = 0.0\nsamples = 4\nvalue = [0, 4]", fillcolor="#399de5"] ;
413 -> 415 ;
416 [label="purpose_credit_card <= 0.5\ngini = 0.077\nsamples = 25\nvalue = [24, 1]", fillcolor="#e68641"] ;
412 -> 416 ;
417 [label="gini = 0.0\nsamples = 23\nvalue = [23, 0]", fillcolor="#e58139"] ;
416 -> 417 ;
418 [label="revol.util <= 66.25\ngini = 0.5\nsamples = 2\nvalue = [1, 1]", fillcolor="#ffffff"] ;
416 -> 418 ;
419 [label="gini = 0.0\nsamples = 1\nvalue = [0, 1]", fillcolor="#399de5"] ;
418 -> 419 ;
420 [label="gini = 0.0\nsamples = 1\nvalue = [1, 0]", fillcolor="#e58139"] ;
418 -> 420 ;
421 [label="gini = 0.0\nsamples = 6\nvalue = [0, 6]", fillcolor="#399de5"] ;
395 -> 421 ;
422 [label="days.with.cr.line <= 6810.042\ngini = 0.345\nsamples = 122\nvalue = [95, 27]", fillcolor="#eca571"] ;
394 -> 422 ;
423 [label="revol.util <= 1.3\ngini = 0.3\nsamples = 109\nvalue = [89, 20]", fillcolor="#eb9d65"] ;
422 -> 423 ;
424 [label="fico <= 677.0\ngini = 0.444\nsamples = 3\nvalue = [1, 2]", fillcolor="#9ccef2"] ;
423 -> 424 ;
425 [label="gini = 0.0\nsamples = 1\nvalue = [1, 0]", fillcolor="#e58139"] ;
424 -> 425 ;
426 [label="gini = 0.0\nsamples = 2\nvalue = [0, 2]", fillcolor="#399de5"] ;
424 -> 426 ;
427 [label="fico <= 684.5\ngini = 0.282\nsamples = 106\nvalue = [88, 18]", fillcolor="#ea9b61"] ;
423 -> 427 ;
428 [label="purpose_small_business <= 0.5\ngini = 0.414\nsamples = 41\nvalue = [29, 12]", fillcolor="#f0b58b"] ;
427 -> 428 ;
429 [label="installment <= 521.415\ngini = 0.381\nsamples = 39\nvalue = [29, 10]", fillcolor="#eeac7d"] ;
428 -> 429 ;
430 [label="inq.last.6mths <= 13.0\ngini = 0.219\nsamples = 24\nvalue = [21, 3]", fillcolor="#e99355"] ;
429 -> 430 ;
431 [label="pub.rec <= 0.5\ngini = 0.159\nsamples = 23\nvalue = [21, 2]", fillcolor="#e78d4c"] ;
430 -> 431 ;
432 [label="delinq.2yrs <= 0.5\ngini = 0.091\nsamples = 21\nvalue = [20, 1]", fillcolor="#e68743"] ;
431 -> 432 ;
433 [label="gini = 0.0\nsamples = 15\nvalue = [15, 0]", fillcolor="#e58139"] ;
432 -> 433 ;
434 [label="revol.util <= 71.05\ngini = 0.278\nsamples = 6\nvalue = [5, 1]", fillcolor="#ea9a61"] ;
432 -> 434 ;
435 [label="gini = 0.0\nsamples = 4\nvalue = [4, 0]", fillcolor="#e58139"] ;
434 -> 435 ;
436 [label="log.annual.inc <= 11.251\ngini = 0.5\nsamples = 2\nvalue = [1, 1]", fillcolor="#ffffff"] ;
434 -> 436 ;
437 [label="gini = 0.0\nsamples = 1\nvalue = [0, 1]", fillcolor="#399de5"] ;
436 -> 437 ;
438 [label="gini = 0.0\nsamples = 1\nvalue = [1, 0]", fillcolor="#e58139"] ;
436 -> 438 ;
439 [label="log.annual.inc <= 11.225\ngini = 0.5\nsamples = 2\nvalue = [1, 1]", fillcolor="#ffffff"] ;
431 -> 439 ;
440 [label="gini = 0.0\nsamples = 1\nvalue = [1, 0]", fillcolor="#e58139"] ;
439 -> 440 ;
441 [label="gini = 0.0\nsamples = 1\nvalue = [0, 1]", fillcolor="#399de5"] ;
439 -> 441 ;
442 [label="gini = 0.0\nsamples = 1\nvalue = [0, 1]", fillcolor="#399de5"] ;
430 -> 442 ;
443 [label="int.rate <= 0.15\ngini = 0.498\nsamples = 15\nvalue = [8, 7]", fillcolor="#fcefe6"] ;
429 -> 443 ;
444 [label="gini = 0.0\nsamples = 3\nvalue = [0, 3]", fillcolor="#399de5"] ;
443 -> 444 ;
445 [label="delinq.2yrs <= 1.5\ngini = 0.444\nsamples = 12\nvalue = [8, 4]", fillcolor="#f2c09c"] ;
443 -> 445 ;
446 [label="inq.last.6mths <= 5.0\ngini = 0.32\nsamples = 10\nvalue = [8, 2]", fillcolor="#eca06a"] ;
445 -> 446 ;
447 [label="days.with.cr.line <= 614.521\ngini = 0.198\nsamples = 9\nvalue = [8, 1]", fillcolor="#e89152"] ;
446 -> 447 ;
448 [label="gini = 0.0\nsamples = 1\nvalue = [0, 1]", fillcolor="#399de5"] ;
447 -> 448 ;
449 [label="gini = 0.0\nsamples = 8\nvalue = [8, 0]", fillcolor="#e58139"] ;
447 -> 449 ;
450 [label="gini = 0.0\nsamples = 1\nvalue = [0, 1]", fillcolor="#399de5"] ;
446 -> 450 ;
451 [label="gini = 0.0\nsamples = 2\nvalue = [0, 2]", fillcolor="#399de5"] ;
445 -> 451 ;
452 [label="gini = 0.0\nsamples = 2\nvalue = [0, 2]", fillcolor="#399de5"] ;
428 -> 452 ;
453 [label="installment <= 497.52\ngini = 0.168\nsamples = 65\nvalue = [59, 6]", fillcolor="#e88e4d"] ;
427 -> 453 ;
454 [label="revol.util <= 55.05\ngini = 0.311\nsamples = 26\nvalue = [21, 5]", fillcolor="#eb9f68"] ;
453 -> 454 ;
455 [label="gini = 0.0\nsamples = 13\nvalue = [13, 0]", fillcolor="#e58139"] ;
454 -> 455 ;
456 [label="fico <= 702.0\ngini = 0.473\nsamples = 13\nvalue = [8, 5]", fillcolor="#f5d0b5"] ;
454 -> 456 ;
457 [label="revol.bal <= 10804.0\ngini = 0.219\nsamples = 8\nvalue = [7, 1]", fillcolor="#e99355"] ;
456 -> 457 ;
458 [label="gini = 0.0\nsamples = 1\nvalue = [0, 1]", fillcolor="#399de5"] ;
457 -> 458 ;
459 [label="gini = 0.0\nsamples = 7\nvalue = [7, 0]", fillcolor="#e58139"] ;
457 -> 459 ;
460 [label="dti <= 24.265\ngini = 0.32\nsamples = 5\nvalue = [1, 4]", fillcolor="#6ab6ec"] ;
456 -> 460 ;
461 [label="gini = 0.0\nsamples = 4\nvalue = [0, 4]", fillcolor="#399de5"] ;
460 -> 461 ;
462 [label="gini = 0.0\nsamples = 1\nvalue = [1, 0]", fillcolor="#e58139"] ;
460 -> 462 ;
463 [label="purpose_home_improvement <= 0.5\ngini = 0.05\nsamples = 39\nvalue = [38, 1]", fillcolor="#e6843e"] ;
453 -> 463 ;
464 [label="gini = 0.0\nsamples = 35\nvalue = [35, 0]", fillcolor="#e58139"] ;
463 -> 464 ;
465 [label="installment <= 610.055\ngini = 0.375\nsamples = 4\nvalue = [3, 1]", fillcolor="#eeab7b"] ;
463 -> 465 ;
466 [label="gini = 0.0\nsamples = 3\nvalue = [3, 0]", fillcolor="#e58139"] ;
465 -> 466 ;
467 [label="gini = 0.0\nsamples = 1\nvalue = [0, 1]", fillcolor="#399de5"] ;
465 -> 467 ;
468 [label="revol.util <= 84.0\ngini = 0.497\nsamples = 13\nvalue = [6, 7]", fillcolor="#e3f1fb"] ;
422 -> 468 ;
469 [label="days.with.cr.line <= 6945.021\ngini = 0.444\nsamples = 9\nvalue = [6, 3]", fillcolor="#f2c09c"] ;
468 -> 469 ;
470 [label="gini = 0.0\nsamples = 2\nvalue = [0, 2]", fillcolor="#399de5"] ;
469 -> 470 ;
471 [label="days.with.cr.line <= 7590.0\ngini = 0.245\nsamples = 7\nvalue = [6, 1]", fillcolor="#e9965a"] ;
469 -> 471 ;
472 [label="gini = 0.0\nsamples = 6\nvalue = [6, 0]", fillcolor="#e58139"] ;
471 -> 472 ;
473 [label="gini = 0.0\nsamples = 1\nvalue = [0, 1]", fillcolor="#399de5"] ;
471 -> 473 ;
474 [label="gini = 0.0\nsamples = 4\nvalue = [0, 4]", fillcolor="#399de5"] ;
468 -> 474 ;
475 [label="int.rate <= 0.127\ngini = 0.499\nsamples = 38\nvalue = [18, 20]", fillcolor="#ebf5fc"] ;
389 -> 475 ;
476 [label="log.annual.inc <= 12.396\ngini = 0.18\nsamples = 10\nvalue = [1, 9]", fillcolor="#4fa8e8"] ;
475 -> 476 ;
477 [label="gini = 0.0\nsamples = 9\nvalue = [0, 9]", fillcolor="#399de5"] ;
476 -> 477 ;
478 [label="gini = 0.0\nsamples = 1\nvalue = [1, 0]", fillcolor="#e58139"] ;
476 -> 478 ;
479 [label="installment <= 716.32\ngini = 0.477\nsamples = 28\nvalue = [17, 11]", fillcolor="#f6d3b9"] ;
475 -> 479 ;
480 [label="gini = 0.0\nsamples = 3\nvalue = [0, 3]", fillcolor="#399de5"] ;
479 -> 480 ;
481 [label="dti <= 12.04\ngini = 0.435\nsamples = 25\nvalue = [17, 8]", fillcolor="#f1bc96"] ;
479 -> 481 ;
482 [label="days.with.cr.line <= 3150.0\ngini = 0.32\nsamples = 5\nvalue = [1, 4]", fillcolor="#6ab6ec"] ;
481 -> 482 ;
483 [label="gini = 0.0\nsamples = 1\nvalue = [1, 0]", fillcolor="#e58139"] ;
482 -> 483 ;
484 [label="gini = 0.0\nsamples = 4\nvalue = [0, 4]", fillcolor="#399de5"] ;
482 -> 484 ;
485 [label="installment <= 880.665\ngini = 0.32\nsamples = 20\nvalue = [16, 4]", fillcolor="#eca06a"] ;
481 -> 485 ;
486 [label="inq.last.6mths <= 6.5\ngini = 0.266\nsamples = 19\nvalue = [16, 3]", fillcolor="#ea995e"] ;
485 -> 486 ;
487 [label="dti <= 16.98\ngini = 0.198\nsamples = 18\nvalue = [16, 2]", fillcolor="#e89152"] ;
486 -> 487 ;
488 [label="revol.util <= 54.9\ngini = 0.444\nsamples = 6\nvalue = [4, 2]", fillcolor="#f2c09c"] ;
487 -> 488 ;
489 [label="gini = 0.0\nsamples = 4\nvalue = [4, 0]", fillcolor="#e58139"] ;
488 -> 489 ;
490 [label="gini = 0.0\nsamples = 2\nvalue = [0, 2]", fillcolor="#399de5"] ;
488 -> 490 ;
491 [label="gini = 0.0\nsamples = 12\nvalue = [12, 0]", fillcolor="#e58139"] ;
487 -> 491 ;
492 [label="gini = 0.0\nsamples = 1\nvalue = [0, 1]", fillcolor="#399de5"] ;
486 -> 492 ;
493 [label="gini = 0.0\nsamples = 1\nvalue = [0, 1]", fillcolor="#399de5"] ;
485 -> 493 ;
494 [label="log.annual.inc <= 11.026\ngini = 0.278\nsamples = 6\nvalue = [1, 5]", fillcolor="#61b1ea"] ;
386 -> 494 ;
495 [label="gini = 0.0\nsamples = 1\nvalue = [1, 0]", fillcolor="#e58139"] ;
494 -> 495 ;
496 [label="gini = 0.0\nsamples = 5\nvalue = [0, 5]", fillcolor="#399de5"] ;
494 -> 496 ;
497 [label="dti <= 27.06\ngini = 0.18\nsamples = 40\nvalue = [36, 4]", fillcolor="#e88f4f"] ;
385 -> 497 ;
498 [label="revol.util <= 90.2\ngini = 0.1\nsamples = 38\nvalue = [36, 2]", fillcolor="#e68844"] ;
497 -> 498 ;
499 [label="log.annual.inc <= 12.654\ngini = 0.053\nsamples = 37\nvalue = [36, 1]", fillcolor="#e6843e"] ;
498 -> 499 ;
500 [label="gini = 0.0\nsamples = 35\nvalue = [35, 0]", fillcolor="#e58139"] ;
499 -> 500 ;
501 [label="revol.bal <= 195721.5\ngini = 0.5\nsamples = 2\nvalue = [1, 1]", fillcolor="#ffffff"] ;
499 -> 501 ;
502 [label="gini = 0.0\nsamples = 1\nvalue = [1, 0]", fillcolor="#e58139"] ;
501 -> 502 ;
503 [label="gini = 0.0\nsamples = 1\nvalue = [0, 1]", fillcolor="#399de5"] ;
501 -> 503 ;
504 [label="gini = 0.0\nsamples = 1\nvalue = [0, 1]", fillcolor="#399de5"] ;
498 -> 504 ;
505 [label="gini = 0.0\nsamples = 2\nvalue = [0, 2]", fillcolor="#399de5"] ;
497 -> 505 ;
506 [label="gini = 0.0\nsamples = 4\nvalue = [0, 4]", fillcolor="#399de5"] ;
384 -> 506 ;
507 [label="purpose_debt_consolidation <= 0.5\ngini = 0.5\nsamples = 66\nvalue = [33, 33]", fillcolor="#ffffff"] ;
383 -> 507 ;
508 [label="inq.last.6mths <= 8.5\ngini = 0.424\nsamples = 36\nvalue = [11, 25]", fillcolor="#90c8f0"] ;
507 -> 508 ;
509 [label="int.rate <= 0.193\ngini = 0.337\nsamples = 28\nvalue = [6, 22]", fillcolor="#6fb8ec"] ;
508 -> 509 ;
510 [label="fico <= 644.5\ngini = 0.18\nsamples = 20\nvalue = [2, 18]", fillcolor="#4fa8e8"] ;
509 -> 510 ;
511 [label="gini = 0.0\nsamples = 1\nvalue = [1, 0]", fillcolor="#e58139"] ;
510 -> 511 ;
512 [label="purpose_credit_card <= 0.5\ngini = 0.1\nsamples = 19\nvalue = [1, 18]", fillcolor="#44a2e6"] ;
510 -> 512 ;
513 [label="gini = 0.0\nsamples = 16\nvalue = [0, 16]", fillcolor="#399de5"] ;
512 -> 513 ;
514 [label="revol.bal <= 22192.0\ngini = 0.444\nsamples = 3\nvalue = [1, 2]", fillcolor="#9ccef2"] ;
512 -> 514 ;
515 [label="gini = 0.0\nsamples = 1\nvalue = [1, 0]", fillcolor="#e58139"] ;
514 -> 515 ;
516 [label="gini = 0.0\nsamples = 2\nvalue = [0, 2]", fillcolor="#399de5"] ;
514 -> 516 ;
517 [label="int.rate <= 0.198\ngini = 0.5\nsamples = 8\nvalue = [4, 4]", fillcolor="#ffffff"] ;
509 -> 517 ;
518 [label="inq.last.6mths <= 7.0\ngini = 0.32\nsamples = 5\nvalue = [4, 1]", fillcolor="#eca06a"] ;
517 -> 518 ;
519 [label="gini = 0.0\nsamples = 4\nvalue = [4, 0]", fillcolor="#e58139"] ;
518 -> 519 ;
520 [label="gini = 0.0\nsamples = 1\nvalue = [0, 1]", fillcolor="#399de5"] ;
518 -> 520 ;
521 [label="gini = 0.0\nsamples = 3\nvalue = [0, 3]", fillcolor="#399de5"] ;
517 -> 521 ;
522 [label="int.rate <= 0.188\ngini = 0.469\nsamples = 8\nvalue = [5, 3]", fillcolor="#f5cdb0"] ;
508 -> 522 ;
523 [label="gini = 0.0\nsamples = 4\nvalue = [4, 0]", fillcolor="#e58139"] ;
522 -> 523 ;
524 [label="fico <= 734.5\ngini = 0.375\nsamples = 4\nvalue = [1, 3]", fillcolor="#7bbeee"] ;
522 -> 524 ;
525 [label="gini = 0.0\nsamples = 3\nvalue = [0, 3]", fillcolor="#399de5"] ;
524 -> 525 ;
526 [label="gini = 0.0\nsamples = 1\nvalue = [1, 0]", fillcolor="#e58139"] ;
524 -> 526 ;
527 [label="installment <= 360.48\ngini = 0.391\nsamples = 30\nvalue = [22, 8]", fillcolor="#eeaf81"] ;
507 -> 527 ;
528 [label="gini = 0.0\nsamples = 2\nvalue = [0, 2]", fillcolor="#399de5"] ;
527 -> 528 ;
529 [label="days.with.cr.line <= 4860.0\ngini = 0.337\nsamples = 28\nvalue = [22, 6]", fillcolor="#eca36f"] ;
527 -> 529 ;
530 [label="gini = 0.0\nsamples = 13\nvalue = [13, 0]", fillcolor="#e58139"] ;
529 -> 530 ;
531 [label="log.annual.inc <= 11.216\ngini = 0.48\nsamples = 15\nvalue = [9, 6]", fillcolor="#f6d5bd"] ;
529 -> 531 ;
532 [label="inq.last.6mths <= 5.0\ngini = 0.32\nsamples = 5\nvalue = [1, 4]", fillcolor="#6ab6ec"] ;
531 -> 532 ;
533 [label="gini = 0.0\nsamples = 1\nvalue = [1, 0]", fillcolor="#e58139"] ;
532 -> 533 ;
534 [label="gini = 0.0\nsamples = 4\nvalue = [0, 4]", fillcolor="#399de5"] ;
532 -> 534 ;
535 [label="revol.bal <= 101395.5\ngini = 0.32\nsamples = 10\nvalue = [8, 2]", fillcolor="#eca06a"] ;
531 -> 535 ;
536 [label="gini = 0.0\nsamples = 8\nvalue = [8, 0]", fillcolor="#e58139"] ;
535 -> 536 ;
537 [label="gini = 0.0\nsamples = 2\nvalue = [0, 2]", fillcolor="#399de5"] ;
535 -> 537 ;
538 [label="int.rate <= 0.093\ngini = 0.23\nsamples = 5387\nvalue = [4673, 714]", fillcolor="#e99457"] ;
0 -> 538 [labeldistance=2.5, labelangle=-45, headlabel="False"] ;
539 [label="revol.bal <= 109752.0\ngini = 0.108\nsamples = 1131\nvalue = [1066, 65]", fillcolor="#e78945"] ;
538 -> 539 ;
540 [label="log.annual.inc <= 9.258\ngini = 0.105\nsamples = 1129\nvalue = [1066, 63]", fillcolor="#e78845"] ;
539 -> 540 ;
541 [label="installment <= 122.535\ngini = 0.49\nsamples = 7\nvalue = [4, 3]", fillcolor="#f8e0ce"] ;
540 -> 541 ;
542 [label="days.with.cr.line <= 2415.0\ngini = 0.375\nsamples = 4\nvalue = [1, 3]", fillcolor="#7bbeee"] ;
541 -> 542 ;
543 [label="dti <= 10.575\ngini = 0.5\nsamples = 2\nvalue = [1, 1]", fillcolor="#ffffff"] ;
542 -> 543 ;
544 [label="gini = 0.0\nsamples = 1\nvalue = [0, 1]", fillcolor="#399de5"] ;
543 -> 544 ;
545 [label="gini = 0.0\nsamples = 1\nvalue = [1, 0]", fillcolor="#e58139"] ;
543 -> 545 ;
546 [label="gini = 0.0\nsamples = 2\nvalue = [0, 2]", fillcolor="#399de5"] ;
542 -> 546 ;
547 [label="gini = 0.0\nsamples = 3\nvalue = [3, 0]", fillcolor="#e58139"] ;
541 -> 547 ;
548 [label="installment <= 562.225\ngini = 0.101\nsamples = 1122\nvalue = [1062, 60]", fillcolor="#e68844"] ;
540 -> 548 ;
549 [label="fico <= 749.5\ngini = 0.097\nsamples = 1115\nvalue = [1058, 57]", fillcolor="#e68844"] ;
548 -> 549 ;
550 [label="revol.util <= 75.7\ngini = 0.155\nsamples = 377\nvalue = [345, 32]", fillcolor="#e78d4b"] ;
549 -> 550 ;
551 [label="days.with.cr.line <= 1215.042\ngini = 0.144\nsamples = 370\nvalue = [341, 29]", fillcolor="#e78c4a"] ;
550 -> 551 ;
552 [label="gini = 0.0\nsamples = 1\nvalue = [0, 1]", fillcolor="#399de5"] ;
551 -> 552 ;
553 [label="days.with.cr.line <= 8011.5\ngini = 0.14\nsamples = 369\nvalue = [341, 28]", fillcolor="#e78b49"] ;
551 -> 553 ;
554 [label="dti <= 15.86\ngini = 0.125\nsamples = 344\nvalue = [321, 23]", fillcolor="#e78a47"] ;
553 -> 554 ;
555 [label="dti <= 15.635\ngini = 0.154\nsamples = 250\nvalue = [229, 21]", fillcolor="#e78d4b"] ;
554 -> 555 ;
556 [label="int.rate <= 0.088\ngini = 0.148\nsamples = 249\nvalue = [229, 20]", fillcolor="#e78c4a"] ;
555 -> 556 ;
557 [label="int.rate <= 0.079\ngini = 0.098\nsamples = 136\nvalue = [129, 7]", fillcolor="#e68844"] ;
556 -> 557 ;
558 [label="log.annual.inc <= 10.495\ngini = 0.214\nsamples = 41\nvalue = [36, 5]", fillcolor="#e99254"] ;
557 -> 558 ;
559 [label="installment <= 158.925\ngini = 0.5\nsamples = 6\nvalue = [3, 3]", fillcolor="#ffffff"] ;
558 -> 559 ;
560 [label="days.with.cr.line <= 2790.0\ngini = 0.375\nsamples = 4\nvalue = [1, 3]", fillcolor="#7bbeee"] ;
559 -> 560 ;
561 [label="gini = 0.0\nsamples = 3\nvalue = [0, 3]", fillcolor="#399de5"] ;
560 -> 561 ;
562 [label="gini = 0.0\nsamples = 1\nvalue = [1, 0]", fillcolor="#e58139"] ;
560 -> 562 ;
563 [label="gini = 0.0\nsamples = 2\nvalue = [2, 0]", fillcolor="#e58139"] ;
559 -> 563 ;
564 [label="fico <= 724.5\ngini = 0.108\nsamples = 35\nvalue = [33, 2]", fillcolor="#e78945"] ;
558 -> 564 ;
565 [label="days.with.cr.line <= 2910.5\ngini = 0.48\nsamples = 5\nvalue = [3, 2]", fillcolor="#f6d5bd"] ;
564 -> 565 ;
566 [label="gini = 0.0\nsamples = 3\nvalue = [3, 0]", fillcolor="#e58139"] ;
565 -> 566 ;
567 [label="gini = 0.0\nsamples = 2\nvalue = [0, 2]", fillcolor="#399de5"] ;
565 -> 567 ;
568 [label="gini = 0.0\nsamples = 30\nvalue = [30, 0]", fillcolor="#e58139"] ;
564 -> 568 ;
569 [label="fico <= 744.5\ngini = 0.041\nsamples = 95\nvalue = [93, 2]", fillcolor="#e6843d"] ;
557 -> 569 ;
570 [label="gini = 0.0\nsamples = 75\nvalue = [75, 0]", fillcolor="#e58139"] ;
569 -> 570 ;
571 [label="log.annual.inc <= 11.194\ngini = 0.18\nsamples = 20\nvalue = [18, 2]", fillcolor="#e88f4f"] ;
569 -> 571 ;
572 [label="installment <= 69.22\ngini = 0.1\nsamples = 19\nvalue = [18, 1]", fillcolor="#e68844"] ;
571 -> 572 ;
573 [label="inq.last.6mths <= 0.5\ngini = 0.444\nsamples = 3\nvalue = [2, 1]", fillcolor="#f2c09c"] ;
572 -> 573 ;
574 [label="gini = 0.0\nsamples = 1\nvalue = [0, 1]", fillcolor="#399de5"] ;
573 -> 574 ;
575 [label="gini = 0.0\nsamples = 2\nvalue = [2, 0]", fillcolor="#e58139"] ;
573 -> 575 ;
576 [label="gini = 0.0\nsamples = 16\nvalue = [16, 0]", fillcolor="#e58139"] ;
572 -> 576 ;
577 [label="gini = 0.0\nsamples = 1\nvalue = [0, 1]", fillcolor="#399de5"] ;
571 -> 577 ;
578 [label="installment <= 222.62\ngini = 0.204\nsamples = 113\nvalue = [100, 13]", fillcolor="#e89153"] ;
556 -> 578 ;
579 [label="installment <= 199.675\ngini = 0.271\nsamples = 62\nvalue = [52, 10]", fillcolor="#ea995f"] ;
578 -> 579 ;
580 [label="days.with.cr.line <= 6975.021\ngini = 0.215\nsamples = 57\nvalue = [50, 7]", fillcolor="#e99355"] ;
579 -> 580 ;
581 [label="revol.util <= 72.2\ngini = 0.191\nsamples = 56\nvalue = [50, 6]", fillcolor="#e89051"] ;
580 -> 581 ;
582 [label="fico <= 714.5\ngini = 0.165\nsamples = 55\nvalue = [50, 5]", fillcolor="#e88e4d"] ;
581 -> 582 ;
583 [label="revol.bal <= 7273.5\ngini = 0.5\nsamples = 2\nvalue = [1, 1]", fillcolor="#ffffff"] ;
582 -> 583 ;
584 [label="gini = 0.0\nsamples = 1\nvalue = [0, 1]", fillcolor="#399de5"] ;
583 -> 584 ;
585 [label="gini = 0.0\nsamples = 1\nvalue = [1, 0]", fillcolor="#e58139"] ;
583 -> 585 ;
586 [label="installment <= 189.56\ngini = 0.14\nsamples = 53\nvalue = [49, 4]", fillcolor="#e78b49"] ;
582 -> 586 ;
587 [label="days.with.cr.line <= 2131.542\ngini = 0.049\nsamples = 40\nvalue = [39, 1]", fillcolor="#e6843e"] ;
586 -> 587 ;
588 [label="log.annual.inc <= 10.668\ngini = 0.5\nsamples = 2\nvalue = [1, 1]", fillcolor="#ffffff"] ;
587 -> 588 ;
589 [label="gini = 0.0\nsamples = 1\nvalue = [1, 0]", fillcolor="#e58139"] ;
588 -> 589 ;
590 [label="gini = 0.0\nsamples = 1\nvalue = [0, 1]", fillcolor="#399de5"] ;
588 -> 590 ;
591 [label="gini = 0.0\nsamples = 38\nvalue = [38, 0]", fillcolor="#e58139"] ;
587 -> 591 ;
592 [label="revol.bal <= 6045.5\ngini = 0.355\nsamples = 13\nvalue = [10, 3]", fillcolor="#eda774"] ;
586 -> 592 ;
593 [label="gini = 0.0\nsamples = 7\nvalue = [7, 0]", fillcolor="#e58139"] ;
592 -> 593 ;
594 [label="revol.util <= 45.6\ngini = 0.5\nsamples = 6\nvalue = [3, 3]", fillcolor="#ffffff"] ;
592 -> 594 ;
595 [label="gini = 0.0\nsamples = 3\nvalue = [0, 3]", fillcolor="#399de5"] ;
594 -> 595 ;
596 [label="gini = 0.0\nsamples = 3\nvalue = [3, 0]", fillcolor="#e58139"] ;
594 -> 596 ;
597 [label="gini = 0.0\nsamples = 1\nvalue = [0, 1]", fillcolor="#399de5"] ;
581 -> 597 ;
598 [label="gini = 0.0\nsamples = 1\nvalue = [0, 1]", fillcolor="#399de5"] ;
580 -> 598 ;
599 [label="log.annual.inc <= 10.747\ngini = 0.48\nsamples = 5\nvalue = [2, 3]", fillcolor="#bddef6"] ;
579 -> 599 ;
600 [label="gini = 0.0\nsamples = 3\nvalue = [0, 3]", fillcolor="#399de5"] ;
599 -> 600 ;
601 [label="gini = 0.0\nsamples = 2\nvalue = [2, 0]", fillcolor="#e58139"] ;
599 -> 601 ;
602 [label="log.annual.inc <= 12.057\ngini = 0.111\nsamples = 51\nvalue = [48, 3]", fillcolor="#e78945"] ;
578 -> 602 ;
603 [label="revol.bal <= 41817.5\ngini = 0.077\nsamples = 50\nvalue = [48, 2]", fillcolor="#e68641"] ;
602 -> 603 ;
604 [label="log.annual.inc <= 10.372\ngini = 0.043\nsamples = 46\nvalue = [45, 1]", fillcolor="#e6843d"] ;
603 -> 604 ;
605 [label="dti <= 7.84\ngini = 0.278\nsamples = 6\nvalue = [5, 1]", fillcolor="#ea9a61"] ;
604 -> 605 ;
606 [label="gini = 0.0\nsamples = 1\nvalue = [0, 1]", fillcolor="#399de5"] ;
605 -> 606 ;
607 [label="gini = 0.0\nsamples = 5\nvalue = [5, 0]", fillcolor="#e58139"] ;
605 -> 607 ;
608 [label="gini = 0.0\nsamples = 40\nvalue = [40, 0]", fillcolor="#e58139"] ;
604 -> 608 ;
609 [label="days.with.cr.line <= 5684.979\ngini = 0.375\nsamples = 4\nvalue = [3, 1]", fillcolor="#eeab7b"] ;
603 -> 609 ;
610 [label="gini = 0.0\nsamples = 1\nvalue = [0, 1]", fillcolor="#399de5"] ;
609 -> 610 ;
611 [label="gini = 0.0\nsamples = 3\nvalue = [3, 0]", fillcolor="#e58139"] ;
609 -> 611 ;
612 [label="gini = 0.0\nsamples = 1\nvalue = [0, 1]", fillcolor="#399de5"] ;
602 -> 612 ;
613 [label="gini = 0.0\nsamples = 1\nvalue = [0, 1]", fillcolor="#399de5"] ;
555 -> 613 ;
614 [label="int.rate <= 0.073\ngini = 0.042\nsamples = 94\nvalue = [92, 2]", fillcolor="#e6843d"] ;
554 -> 614 ;
615 [label="purpose_debt_consolidation <= 0.5\ngini = 0.5\nsamples = 2\nvalue = [1, 1]", fillcolor="#ffffff"] ;
614 -> 615 ;
616 [label="gini = 0.0\nsamples = 1\nvalue = [1, 0]", fillcolor="#e58139"] ;
615 -> 616 ;
617 [label="gini = 0.0\nsamples = 1\nvalue = [0, 1]", fillcolor="#399de5"] ;
615 -> 617 ;
618 [label="log.annual.inc <= 10.165\ngini = 0.022\nsamples = 92\nvalue = [91, 1]", fillcolor="#e5823b"] ;
614 -> 618 ;
619 [label="revol.util <= 44.1\ngini = 0.198\nsamples = 9\nvalue = [8, 1]", fillcolor="#e89152"] ;
618 -> 619 ;
620 [label="gini = 0.0\nsamples = 7\nvalue = [7, 0]", fillcolor="#e58139"] ;
619 -> 620 ;
621 [label="days.with.cr.line <= 2700.021\ngini = 0.5\nsamples = 2\nvalue = [1, 1]", fillcolor="#ffffff"] ;
619 -> 621 ;
622 [label="gini = 0.0\nsamples = 1\nvalue = [1, 0]", fillcolor="#e58139"] ;
621 -> 622 ;
623 [label="gini = 0.0\nsamples = 1\nvalue = [0, 1]", fillcolor="#399de5"] ;
621 -> 623 ;
624 [label="gini = 0.0\nsamples = 83\nvalue = [83, 0]", fillcolor="#e58139"] ;
618 -> 624 ;
625 [label="days.with.cr.line <= 8085.0\ngini = 0.32\nsamples = 25\nvalue = [20, 5]", fillcolor="#eca06a"] ;
553 -> 625 ;
626 [label="gini = 0.0\nsamples = 2\nvalue = [0, 2]", fillcolor="#399de5"] ;
625 -> 626 ;
627 [label="inq.last.6mths <= 3.5\ngini = 0.227\nsamples = 23\nvalue = [20, 3]", fillcolor="#e99457"] ;
625 -> 627 ;
628 [label="purpose_debt_consolidation <= 0.5\ngini = 0.165\nsamples = 22\nvalue = [20, 2]", fillcolor="#e88e4d"] ;
627 -> 628 ;
629 [label="gini = 0.0\nsamples = 15\nvalue = [15, 0]", fillcolor="#e58139"] ;
628 -> 629 ;
630 [label="inq.last.6mths <= 0.5\ngini = 0.408\nsamples = 7\nvalue = [5, 2]", fillcolor="#efb388"] ;
628 -> 630 ;
631 [label="gini = 0.0\nsamples = 2\nvalue = [0, 2]", fillcolor="#399de5"] ;
630 -> 631 ;
632 [label="gini = 0.0\nsamples = 5\nvalue = [5, 0]", fillcolor="#e58139"] ;
630 -> 632 ;
633 [label="gini = 0.0\nsamples = 1\nvalue = [0, 1]", fillcolor="#399de5"] ;
627 -> 633 ;
634 [label="log.annual.inc <= 11.77\ngini = 0.49\nsamples = 7\nvalue = [4, 3]", fillcolor="#f8e0ce"] ;
550 -> 634 ;
635 [label="revol.util <= 76.45\ngini = 0.32\nsamples = 5\nvalue = [4, 1]", fillcolor="#eca06a"] ;
634 -> 635 ;
636 [label="gini = 0.0\nsamples = 1\nvalue = [0, 1]", fillcolor="#399de5"] ;
635 -> 636 ;
637 [label="gini = 0.0\nsamples = 4\nvalue = [4, 0]", fillcolor="#e58139"] ;
635 -> 637 ;
638 [label="gini = 0.0\nsamples = 2\nvalue = [0, 2]", fillcolor="#399de5"] ;
634 -> 638 ;
639 [label="inq.last.6mths <= 3.5\ngini = 0.065\nsamples = 738\nvalue = [713, 25]", fillcolor="#e68540"] ;
549 -> 639 ;
640 [label="fico <= 819.5\ngini = 0.057\nsamples = 715\nvalue = [694, 21]", fillcolor="#e6853f"] ;
639 -> 640 ;
641 [label="days.with.cr.line <= 14054.979\ngini = 0.055\nsamples = 713\nvalue = [693, 20]", fillcolor="#e6853f"] ;
640 -> 641 ;
642 [label="revol.bal <= 17550.0\ngini = 0.05\nsamples = 705\nvalue = [687, 18]", fillcolor="#e6843e"] ;
641 -> 642 ;
643 [label="log.annual.inc <= 10.596\ngini = 0.036\nsamples = 595\nvalue = [584, 11]", fillcolor="#e5833d"] ;
642 -> 643 ;
644 [label="dti <= 0.09\ngini = 0.096\nsamples = 138\nvalue = [131, 7]", fillcolor="#e68844"] ;
643 -> 644 ;
645 [label="gini = 0.0\nsamples = 1\nvalue = [0, 1]", fillcolor="#399de5"] ;
644 -> 645 ;
646 [label="log.annual.inc <= 10.59\ngini = 0.084\nsamples = 137\nvalue = [131, 6]", fillcolor="#e68742"] ;
644 -> 646 ;
647 [label="days.with.cr.line <= 8025.042\ngini = 0.071\nsamples = 136\nvalue = [131, 5]", fillcolor="#e68641"] ;
646 -> 647 ;
648 [label="installment <= 312.78\ngini = 0.033\nsamples = 120\nvalue = [118, 2]", fillcolor="#e5833c"] ;
647 -> 648 ;
649 [label="gini = 0.0\nsamples = 99\nvalue = [99, 0]", fillcolor="#e58139"] ;
648 -> 649 ;
650 [label="log.annual.inc <= 9.999\ngini = 0.172\nsamples = 21\nvalue = [19, 2]", fillcolor="#e88e4e"] ;
648 -> 650 ;
651 [label="gini = 0.0\nsamples = 1\nvalue = [0, 1]", fillcolor="#399de5"] ;
650 -> 651 ;
652 [label="installment <= 314.74\ngini = 0.095\nsamples = 20\nvalue = [19, 1]", fillcolor="#e68843"] ;
650 -> 652 ;
653 [label="gini = 0.0\nsamples = 1\nvalue = [0, 1]", fillcolor="#399de5"] ;
652 -> 653 ;
654 [label="gini = 0.0\nsamples = 19\nvalue = [19, 0]", fillcolor="#e58139"] ;
652 -> 654 ;
655 [label="days.with.cr.line <= 8219.979\ngini = 0.305\nsamples = 16\nvalue = [13, 3]", fillcolor="#eb9e67"] ;
647 -> 655 ;
656 [label="purpose_educational <= 0.5\ngini = 0.444\nsamples = 3\nvalue = [1, 2]", fillcolor="#9ccef2"] ;
655 -> 656 ;
657 [label="gini = 0.0\nsamples = 2\nvalue = [0, 2]", fillcolor="#399de5"] ;
656 -> 657 ;
658 [label="gini = 0.0\nsamples = 1\nvalue = [1, 0]", fillcolor="#e58139"] ;
656 -> 658 ;
659 [label="dti <= 15.015\ngini = 0.142\nsamples = 13\nvalue = [12, 1]", fillcolor="#e78c49"] ;
655 -> 659 ;
660 [label="gini = 0.0\nsamples = 11\nvalue = [11, 0]", fillcolor="#e58139"] ;
659 -> 660 ;
661 [label="int.rate <= 0.076\ngini = 0.5\nsamples = 2\nvalue = [1, 1]", fillcolor="#ffffff"] ;
659 -> 661 ;
662 [label="gini = 0.0\nsamples = 1\nvalue = [1, 0]", fillcolor="#e58139"] ;
661 -> 662 ;
663 [label="gini = 0.0\nsamples = 1\nvalue = [0, 1]", fillcolor="#399de5"] ;
661 -> 663 ;
664 [label="gini = 0.0\nsamples = 1\nvalue = [0, 1]", fillcolor="#399de5"] ;
646 -> 664 ;
665 [label="delinq.2yrs <= 0.5\ngini = 0.017\nsamples = 457\nvalue = [453, 4]", fillcolor="#e5823b"] ;
643 -> 665 ;
666 [label="revol.util <= 52.8\ngini = 0.013\nsamples = 453\nvalue = [450, 3]", fillcolor="#e5823a"] ;
665 -> 666 ;
667 [label="revol.bal <= 14199.0\ngini = 0.009\nsamples = 445\nvalue = [443, 2]", fillcolor="#e5823a"] ;
666 -> 667 ;
668 [label="fico <= 799.5\ngini = 0.005\nsamples = 421\nvalue = [420, 1]", fillcolor="#e58139"] ;
667 -> 668 ;
669 [label="gini = 0.0\nsamples = 385\nvalue = [385, 0]", fillcolor="#e58139"] ;
668 -> 669 ;
670 [label="dti <= 9.465\ngini = 0.054\nsamples = 36\nvalue = [35, 1]", fillcolor="#e6853f"] ;
668 -> 670 ;
671 [label="gini = 0.0\nsamples = 32\nvalue = [32, 0]", fillcolor="#e58139"] ;
670 -> 671 ;
672 [label="days.with.cr.line <= 5755.979\ngini = 0.375\nsamples = 4\nvalue = [3, 1]", fillcolor="#eeab7b"] ;
670 -> 672 ;
673 [label="gini = 0.0\nsamples = 1\nvalue = [0, 1]", fillcolor="#399de5"] ;
672 -> 673 ;
674 [label="gini = 0.0\nsamples = 3\nvalue = [3, 0]", fillcolor="#e58139"] ;
672 -> 674 ;
675 [label="revol.bal <= 14356.0\ngini = 0.08\nsamples = 24\nvalue = [23, 1]", fillcolor="#e68642"] ;
667 -> 675 ;
676 [label="gini = 0.0\nsamples = 1\nvalue = [0, 1]", fillcolor="#399de5"] ;
675 -> 676 ;
677 [label="gini = 0.0\nsamples = 23\nvalue = [23, 0]", fillcolor="#e58139"] ;
675 -> 677 ;
678 [label="installment <= 94.13\ngini = 0.219\nsamples = 8\nvalue = [7, 1]", fillcolor="#e99355"] ;
666 -> 678 ;
679 [label="gini = 0.0\nsamples = 1\nvalue = [0, 1]", fillcolor="#399de5"] ;
678 -> 679 ;
680 [label="gini = 0.0\nsamples = 7\nvalue = [7, 0]", fillcolor="#e58139"] ;
678 -> 680 ;
681 [label="inq.last.6mths <= 2.5\ngini = 0.375\nsamples = 4\nvalue = [3, 1]", fillcolor="#eeab7b"] ;
665 -> 681 ;
682 [label="gini = 0.0\nsamples = 3\nvalue = [3, 0]", fillcolor="#e58139"] ;
681 -> 682 ;
683 [label="gini = 0.0\nsamples = 1\nvalue = [0, 1]", fillcolor="#399de5"] ;
681 -> 683 ;
684 [label="revol.bal <= 17590.0\ngini = 0.119\nsamples = 110\nvalue = [103, 7]", fillcolor="#e78a46"] ;
642 -> 684 ;
685 [label="gini = 0.0\nsamples = 1\nvalue = [0, 1]", fillcolor="#399de5"] ;
684 -> 685 ;
686 [label="revol.util <= 0.55\ngini = 0.104\nsamples = 109\nvalue = [103, 6]", fillcolor="#e78845"] ;
684 -> 686 ;
687 [label="installment <= 357.435\ngini = 0.5\nsamples = 2\nvalue = [1, 1]", fillcolor="#ffffff"] ;
686 -> 687 ;
688 [label="gini = 0.0\nsamples = 1\nvalue = [1, 0]", fillcolor="#e58139"] ;
687 -> 688 ;
689 [label="gini = 0.0\nsamples = 1\nvalue = [0, 1]", fillcolor="#399de5"] ;
687 -> 689 ;
690 [label="dti <= 23.155\ngini = 0.089\nsamples = 107\nvalue = [102, 5]", fillcolor="#e68743"] ;
686 -> 690 ;
691 [label="installment <= 69.5\ngini = 0.074\nsamples = 104\nvalue = [100, 4]", fillcolor="#e68641"] ;
690 -> 691 ;
692 [label="installment <= 57.745\ngini = 0.375\nsamples = 4\nvalue = [3, 1]", fillcolor="#eeab7b"] ;
691 -> 692 ;
693 [label="gini = 0.0\nsamples = 3\nvalue = [3, 0]", fillcolor="#e58139"] ;
692 -> 693 ;
694 [label="gini = 0.0\nsamples = 1\nvalue = [0, 1]", fillcolor="#399de5"] ;
692 -> 694 ;
695 [label="purpose_debt_consolidation <= 0.5\ngini = 0.058\nsamples = 100\nvalue = [97, 3]", fillcolor="#e6853f"] ;
691 -> 695 ;
696 [label="gini = 0.0\nsamples = 68\nvalue = [68, 0]", fillcolor="#e58139"] ;
695 -> 696 ;
697 [label="installment <= 316.915\ngini = 0.17\nsamples = 32\nvalue = [29, 3]", fillcolor="#e88e4d"] ;
695 -> 697 ;
698 [label="days.with.cr.line <= 5844.958\ngini = 0.32\nsamples = 15\nvalue = [12, 3]", fillcolor="#eca06a"] ;
697 -> 698 ;
699 [label="days.with.cr.line <= 4650.042\ngini = 0.5\nsamples = 4\nvalue = [2, 2]", fillcolor="#ffffff"] ;
698 -> 699 ;
700 [label="gini = 0.0\nsamples = 2\nvalue = [2, 0]", fillcolor="#e58139"] ;
699 -> 700 ;
701 [label="gini = 0.0\nsamples = 2\nvalue = [0, 2]", fillcolor="#399de5"] ;
699 -> 701 ;
702 [label="log.annual.inc <= 11.402\ngini = 0.165\nsamples = 11\nvalue = [10, 1]", fillcolor="#e88e4d"] ;
698 -> 702 ;
703 [label="gini = 0.0\nsamples = 7\nvalue = [7, 0]", fillcolor="#e58139"] ;
702 -> 703 ;
704 [label="log.annual.inc <= 11.523\ngini = 0.375\nsamples = 4\nvalue = [3, 1]", fillcolor="#eeab7b"] ;
702 -> 704 ;
705 [label="gini = 0.0\nsamples = 1\nvalue = [0, 1]", fillcolor="#399de5"] ;
704 -> 705 ;
706 [label="gini = 0.0\nsamples = 3\nvalue = [3, 0]", fillcolor="#e58139"] ;
704 -> 706 ;
707 [label="gini = 0.0\nsamples = 17\nvalue = [17, 0]", fillcolor="#e58139"] ;
697 -> 707 ;
708 [label="dti <= 23.38\ngini = 0.444\nsamples = 3\nvalue = [2, 1]", fillcolor="#f2c09c"] ;
690 -> 708 ;
709 [label="gini = 0.0\nsamples = 1\nvalue = [0, 1]", fillcolor="#399de5"] ;
708 -> 709 ;
710 [label="gini = 0.0\nsamples = 2\nvalue = [2, 0]", fillcolor="#e58139"] ;
708 -> 710 ;
711 [label="days.with.cr.line <= 14805.0\ngini = 0.375\nsamples = 8\nvalue = [6, 2]", fillcolor="#eeab7b"] ;
641 -> 711 ;
712 [label="fico <= 769.5\ngini = 0.444\nsamples = 3\nvalue = [1, 2]", fillcolor="#9ccef2"] ;
711 -> 712 ;
713 [label="gini = 0.0\nsamples = 1\nvalue = [1, 0]", fillcolor="#e58139"] ;
712 -> 713 ;
714 [label="gini = 0.0\nsamples = 2\nvalue = [0, 2]", fillcolor="#399de5"] ;
712 -> 714 ;
715 [label="gini = 0.0\nsamples = 5\nvalue = [5, 0]", fillcolor="#e58139"] ;
711 -> 715 ;
716 [label="days.with.cr.line <= 10614.521\ngini = 0.5\nsamples = 2\nvalue = [1, 1]", fillcolor="#ffffff"] ;
640 -> 716 ;
717 [label="gini = 0.0\nsamples = 1\nvalue = [0, 1]", fillcolor="#399de5"] ;
716 -> 717 ;
718 [label="gini = 0.0\nsamples = 1\nvalue = [1, 0]", fillcolor="#e58139"] ;
716 -> 718 ;
719 [label="days.with.cr.line <= 5429.521\ngini = 0.287\nsamples = 23\nvalue = [19, 4]", fillcolor="#ea9c63"] ;
639 -> 719 ;
720 [label="log.annual.inc <= 11.046\ngini = 0.494\nsamples = 9\nvalue = [5, 4]", fillcolor="#fae6d7"] ;
719 -> 720 ;
721 [label="gini = 0.0\nsamples = 4\nvalue = [0, 4]", fillcolor="#399de5"] ;
720 -> 721 ;
722 [label="gini = 0.0\nsamples = 5\nvalue = [5, 0]", fillcolor="#e58139"] ;
720 -> 722 ;
723 [label="gini = 0.0\nsamples = 14\nvalue = [14, 0]", fillcolor="#e58139"] ;
719 -> 723 ;
724 [label="fico <= 779.5\ngini = 0.49\nsamples = 7\nvalue = [4, 3]", fillcolor="#f8e0ce"] ;
548 -> 724 ;
725 [label="gini = 0.0\nsamples = 3\nvalue = [0, 3]", fillcolor="#399de5"] ;
724 -> 725 ;
726 [label="gini = 0.0\nsamples = 4\nvalue = [4, 0]", fillcolor="#e58139"] ;
724 -> 726 ;
727 [label="gini = 0.0\nsamples = 2\nvalue = [0, 2]", fillcolor="#399de5"] ;
539 -> 727 ;
728 [label="purpose_small_business <= 0.5\ngini = 0.258\nsamples = 4256\nvalue = [3607, 649]", fillcolor="#ea985d"] ;
538 -> 728 ;
729 [label="inq.last.6mths <= 2.5\ngini = 0.246\nsamples = 3947\nvalue = [3380, 567]", fillcolor="#e9965a"] ;
728 -> 729 ;
730 [label="fico <= 704.5\ngini = 0.231\nsamples = 3483\nvalue = [3019, 464]", fillcolor="#e99457"] ;
729 -> 730 ;
731 [label="installment <= 745.625\ngini = 0.261\nsamples = 1932\nvalue = [1634, 298]", fillcolor="#ea985d"] ;
730 -> 731 ;
732 [label="installment <= 32.715\ngini = 0.253\nsamples = 1852\nvalue = [1577, 275]", fillcolor="#ea975c"] ;
731 -> 732 ;
733 [label="gini = 0.0\nsamples = 2\nvalue = [0, 2]", fillcolor="#399de5"] ;
732 -> 733 ;
734 [label="days.with.cr.line <= 3779.979\ngini = 0.252\nsamples = 1850\nvalue = [1577, 273]", fillcolor="#ea975b"] ;
732 -> 734 ;
735 [label="log.annual.inc <= 9.647\ngini = 0.217\nsamples = 923\nvalue = [809, 114]", fillcolor="#e99355"] ;
734 -> 735 ;
736 [label="dti <= 10.975\ngini = 0.444\nsamples = 27\nvalue = [18, 9]", fillcolor="#f2c09c"] ;
735 -> 736 ;
737 [label="installment <= 49.245\ngini = 0.142\nsamples = 13\nvalue = [12, 1]", fillcolor="#e78c49"] ;
736 -> 737 ;
738 [label="gini = 0.0\nsamples = 1\nvalue = [0, 1]", fillcolor="#399de5"] ;
737 -> 738 ;
739 [label="gini = 0.0\nsamples = 12\nvalue = [12, 0]", fillcolor="#e58139"] ;
737 -> 739 ;
740 [label="dti <= 15.365\ngini = 0.49\nsamples = 14\nvalue = [6, 8]", fillcolor="#cee6f8"] ;
736 -> 740 ;
741 [label="gini = 0.0\nsamples = 6\nvalue = [0, 6]", fillcolor="#399de5"] ;
740 -> 741 ;
742 [label="delinq.2yrs <= 0.5\ngini = 0.375\nsamples = 8\nvalue = [6, 2]", fillcolor="#eeab7b"] ;
740 -> 742 ;
743 [label="gini = 0.0\nsamples = 6\nvalue = [6, 0]", fillcolor="#e58139"] ;
742 -> 743 ;
744 [label="gini = 0.0\nsamples = 2\nvalue = [0, 2]", fillcolor="#399de5"] ;
742 -> 744 ;
745 [label="pub.rec <= 0.5\ngini = 0.207\nsamples = 896\nvalue = [791, 105]", fillcolor="#e89253"] ;
735 -> 745 ;
746 [label="dti <= 18.35\ngini = 0.195\nsamples = 848\nvalue = [755, 93]", fillcolor="#e89151"] ;
745 -> 746 ;
747 [label="dti <= 9.865\ngini = 0.164\nsamples = 623\nvalue = [567, 56]", fillcolor="#e88d4d"] ;
746 -> 747 ;
748 [label="installment <= 696.945\ngini = 0.222\nsamples = 283\nvalue = [247, 36]", fillcolor="#e99356"] ;
747 -> 748 ;
749 [label="dti <= 9.835\ngini = 0.217\nsamples = 282\nvalue = [247, 35]", fillcolor="#e99355"] ;
748 -> 749 ;
750 [label="fico <= 679.5\ngini = 0.213\nsamples = 281\nvalue = [247, 34]", fillcolor="#e99254"] ;
749 -> 750 ;
751 [label="purpose_major_purchase <= 0.5\ngini = 0.295\nsamples = 111\nvalue = [91, 20]", fillcolor="#eb9d65"] ;
750 -> 751 ;
752 [label="days.with.cr.line <= 2206.0\ngini = 0.267\nsamples = 107\nvalue = [90, 17]", fillcolor="#ea995e"] ;
751 -> 752 ;
753 [label="dti <= 1.065\ngini = 0.109\nsamples = 52\nvalue = [49, 3]", fillcolor="#e78945"] ;
752 -> 753 ;
754 [label="gini = 0.0\nsamples = 1\nvalue = [0, 1]", fillcolor="#399de5"] ;
753 -> 754 ;
755 [label="dti <= 7.53\ngini = 0.075\nsamples = 51\nvalue = [49, 2]", fillcolor="#e68641"] ;
753 -> 755 ;
756 [label="gini = 0.0\nsamples = 40\nvalue = [40, 0]", fillcolor="#e58139"] ;
755 -> 756 ;
757 [label="dti <= 7.865\ngini = 0.298\nsamples = 11\nvalue = [9, 2]", fillcolor="#eb9d65"] ;
755 -> 757 ;
758 [label="gini = 0.0\nsamples = 2\nvalue = [0, 2]", fillcolor="#399de5"] ;
757 -> 758 ;
759 [label="gini = 0.0\nsamples = 9\nvalue = [9, 0]", fillcolor="#e58139"] ;
757 -> 759 ;
760 [label="days.with.cr.line <= 3570.021\ngini = 0.38\nsamples = 55\nvalue = [41, 14]", fillcolor="#eeac7d"] ;
752 -> 760 ;
761 [label="days.with.cr.line <= 3495.979\ngini = 0.418\nsamples = 47\nvalue = [33, 14]", fillcolor="#f0b68d"] ;
760 -> 761 ;
762 [label="log.annual.inc <= 10.597\ngini = 0.391\nsamples = 45\nvalue = [33, 12]", fillcolor="#eeaf81"] ;
761 -> 762 ;
763 [label="installment <= 88.075\ngini = 0.133\nsamples = 14\nvalue = [13, 1]", fillcolor="#e78b48"] ;
762 -> 763 ;
764 [label="gini = 0.0\nsamples = 1\nvalue = [0, 1]", fillcolor="#399de5"] ;
763 -> 764 ;
765 [label="gini = 0.0\nsamples = 13\nvalue = [13, 0]", fillcolor="#e58139"] ;
763 -> 765 ;
766 [label="purpose_debt_consolidation <= 0.5\ngini = 0.458\nsamples = 31\nvalue = [20, 11]", fillcolor="#f3c6a6"] ;
762 -> 766 ;
767 [label="int.rate <= 0.16\ngini = 0.165\nsamples = 11\nvalue = [10, 1]", fillcolor="#e88e4d"] ;
766 -> 767 ;
768 [label="gini = 0.0\nsamples = 9\nvalue = [9, 0]", fillcolor="#e58139"] ;
767 -> 768 ;
769 [label="int.rate <= 0.166\ngini = 0.5\nsamples = 2\nvalue = [1, 1]", fillcolor="#ffffff"] ;
767 -> 769 ;
770 [label="gini = 0.0\nsamples = 1\nvalue = [0, 1]", fillcolor="#399de5"] ;
769 -> 770 ;
771 [label="gini = 0.0\nsamples = 1\nvalue = [1, 0]", fillcolor="#e58139"] ;
769 -> 771 ;
772 [label="revol.util <= 24.05\ngini = 0.5\nsamples = 20\nvalue = [10, 10]", fillcolor="#ffffff"] ;
766 -> 772 ;
773 [label="gini = 0.0\nsamples = 3\nvalue = [3, 0]", fillcolor="#e58139"] ;
772 -> 773 ;
774 [label="revol.util <= 92.05\ngini = 0.484\nsamples = 17\nvalue = [7, 10]", fillcolor="#c4e2f7"] ;
772 -> 774 ;
775 [label="days.with.cr.line <= 3359.979\ngini = 0.408\nsamples = 14\nvalue = [4, 10]", fillcolor="#88c4ef"] ;
774 -> 775 ;
776 [label="revol.bal <= 54671.5\ngini = 0.298\nsamples = 11\nvalue = [2, 9]", fillcolor="#65b3eb"] ;
775 -> 776 ;
777 [label="dti <= 7.085\ngini = 0.18\nsamples = 10\nvalue = [1, 9]", fillcolor="#4fa8e8"] ;
776 -> 777 ;
778 [label="gini = 0.0\nsamples = 8\nvalue = [0, 8]", fillcolor="#399de5"] ;
777 -> 778 ;
779 [label="dti <= 8.32\ngini = 0.5\nsamples = 2\nvalue = [1, 1]", fillcolor="#ffffff"] ;
777 -> 779 ;
780 [label="gini = 0.0\nsamples = 1\nvalue = [1, 0]", fillcolor="#e58139"] ;
779 -> 780 ;
781 [label="gini = 0.0\nsamples = 1\nvalue = [0, 1]", fillcolor="#399de5"] ;
779 -> 781 ;
782 [label="gini = 0.0\nsamples = 1\nvalue = [1, 0]", fillcolor="#e58139"] ;
776 -> 782 ;
783 [label="dti <= 6.125\ngini = 0.444\nsamples = 3\nvalue = [2, 1]", fillcolor="#f2c09c"] ;
775 -> 783 ;
784 [label="gini = 0.0\nsamples = 2\nvalue = [2, 0]", fillcolor="#e58139"] ;
783 -> 784 ;
785 [label="gini = 0.0\nsamples = 1\nvalue = [0, 1]", fillcolor="#399de5"] ;
783 -> 785 ;
786 [label="gini = 0.0\nsamples = 3\nvalue = [3, 0]", fillcolor="#e58139"] ;
774 -> 786 ;
787 [label="gini = 0.0\nsamples = 2\nvalue = [0, 2]", fillcolor="#399de5"] ;
761 -> 787 ;
788 [label="gini = 0.0\nsamples = 8\nvalue = [8, 0]", fillcolor="#e58139"] ;
760 -> 788 ;
789 [label="log.annual.inc <= 10.568\ngini = 0.375\nsamples = 4\nvalue = [1, 3]", fillcolor="#7bbeee"] ;
751 -> 789 ;
790 [label="gini = 0.0\nsamples = 1\nvalue = [1, 0]", fillcolor="#e58139"] ;
789 -> 790 ;
791 [label="gini = 0.0\nsamples = 3\nvalue = [0, 3]", fillcolor="#399de5"] ;
789 -> 791 ;
792 [label="revol.bal <= 63924.5\ngini = 0.151\nsamples = 170\nvalue = [156, 14]", fillcolor="#e78c4b"] ;
750 -> 792 ;
793 [label="int.rate <= 0.123\ngini = 0.142\nsamples = 169\nvalue = [156, 13]", fillcolor="#e78c49"] ;
792 -> 793 ;
794 [label="installment <= 346.165\ngini = 0.27\nsamples = 56\nvalue = [47, 9]", fillcolor="#ea995f"] ;
793 -> 794 ;
795 [label="fico <= 689.5\ngini = 0.204\nsamples = 52\nvalue = [46, 6]", fillcolor="#e89153"] ;
794 -> 795 ;
796 [label="int.rate <= 0.111\ngini = 0.351\nsamples = 22\nvalue = [17, 5]", fillcolor="#eda673"] ;
795 -> 796 ;
797 [label="gini = 0.0\nsamples = 11\nvalue = [11, 0]", fillcolor="#e58139"] ;
796 -> 797 ;
798 [label="int.rate <= 0.113\ngini = 0.496\nsamples = 11\nvalue = [6, 5]", fillcolor="#fbeade"] ;
796 -> 798 ;
799 [label="gini = 0.0\nsamples = 2\nvalue = [0, 2]", fillcolor="#399de5"] ;
798 -> 799 ;
800 [label="revol.bal <= 5686.5\ngini = 0.444\nsamples = 9\nvalue = [6, 3]", fillcolor="#f2c09c"] ;
798 -> 800 ;
801 [label="dti <= 5.85\ngini = 0.48\nsamples = 5\nvalue = [2, 3]", fillcolor="#bddef6"] ;
800 -> 801 ;
802 [label="gini = 0.0\nsamples = 2\nvalue = [2, 0]", fillcolor="#e58139"] ;
801 -> 802 ;
803 [label="gini = 0.0\nsamples = 3\nvalue = [0, 3]", fillcolor="#399de5"] ;
801 -> 803 ;
804 [label="gini = 0.0\nsamples = 4\nvalue = [4, 0]", fillcolor="#e58139"] ;
800 -> 804 ;
805 [label="days.with.cr.line <= 1501.479\ngini = 0.064\nsamples = 30\nvalue = [29, 1]", fillcolor="#e68540"] ;
795 -> 805 ;
806 [label="revol.bal <= 2581.0\ngini = 0.5\nsamples = 2\nvalue = [1, 1]", fillcolor="#ffffff"] ;
805 -> 806 ;
807 [label="gini = 0.0\nsamples = 1\nvalue = [1, 0]", fillcolor="#e58139"] ;
806 -> 807 ;
808 [label="gini = 0.0\nsamples = 1\nvalue = [0, 1]", fillcolor="#399de5"] ;
806 -> 808 ;
809 [label="gini = 0.0\nsamples = 28\nvalue = [28, 0]", fillcolor="#e58139"] ;
805 -> 809 ;
810 [label="fico <= 699.5\ngini = 0.375\nsamples = 4\nvalue = [1, 3]", fillcolor="#7bbeee"] ;
794 -> 810 ;
811 [label="gini = 0.0\nsamples = 3\nvalue = [0, 3]", fillcolor="#399de5"] ;
810 -> 811 ;
812 [label="gini = 0.0\nsamples = 1\nvalue = [1, 0]", fillcolor="#e58139"] ;
810 -> 812 ;
813 [label="installment <= 90.13\ngini = 0.068\nsamples = 113\nvalue = [109, 4]", fillcolor="#e68640"] ;
793 -> 813 ;
814 [label="revol.bal <= 7956.5\ngini = 0.346\nsamples = 9\nvalue = [7, 2]", fillcolor="#eca572"] ;
813 -> 814 ;
815 [label="dti <= 2.33\ngini = 0.219\nsamples = 8\nvalue = [7, 1]", fillcolor="#e99355"] ;
814 -> 815 ;
816 [label="gini = 0.0\nsamples = 1\nvalue = [0, 1]", fillcolor="#399de5"] ;
815 -> 816 ;
817 [label="gini = 0.0\nsamples = 7\nvalue = [7, 0]", fillcolor="#e58139"] ;
815 -> 817 ;
818 [label="gini = 0.0\nsamples = 1\nvalue = [0, 1]", fillcolor="#399de5"] ;
814 -> 818 ;
819 [label="int.rate <= 0.162\ngini = 0.038\nsamples = 104\nvalue = [102, 2]", fillcolor="#e6833d"] ;
813 -> 819 ;
820 [label="dti <= 0.285\ngini = 0.02\nsamples = 101\nvalue = [100, 1]", fillcolor="#e5823b"] ;
819 -> 820 ;
821 [label="revol.util <= 50.15\ngini = 0.32\nsamples = 5\nvalue = [4, 1]", fillcolor="#eca06a"] ;
820 -> 821 ;
822 [label="gini = 0.0\nsamples = 4\nvalue = [4, 0]", fillcolor="#e58139"] ;
821 -> 822 ;
823 [label="gini = 0.0\nsamples = 1\nvalue = [0, 1]", fillcolor="#399de5"] ;
821 -> 823 ;
824 [label="gini = 0.0\nsamples = 96\nvalue = [96, 0]", fillcolor="#e58139"] ;
820 -> 824 ;
825 [label="days.with.cr.line <= 1200.0\ngini = 0.444\nsamples = 3\nvalue = [2, 1]", fillcolor="#f2c09c"] ;
819 -> 825 ;
826 [label="gini = 0.0\nsamples = 2\nvalue = [2, 0]", fillcolor="#e58139"] ;
825 -> 826 ;
827 [label="gini = 0.0\nsamples = 1\nvalue = [0, 1]", fillcolor="#399de5"] ;
825 -> 827 ;
828 [label="gini = 0.0\nsamples = 1\nvalue = [0, 1]", fillcolor="#399de5"] ;
792 -> 828 ;
829 [label="gini = 0.0\nsamples = 1\nvalue = [0, 1]", fillcolor="#399de5"] ;
749 -> 829 ;
830 [label="gini = 0.0\nsamples = 1\nvalue = [0, 1]", fillcolor="#399de5"] ;
748 -> 830 ;
831 [label="days.with.cr.line <= 1136.0\ngini = 0.111\nsamples = 340\nvalue = [320, 20]", fillcolor="#e78945"] ;
747 -> 831 ;
832 [label="gini = 0.0\nsamples = 1\nvalue = [0, 1]", fillcolor="#399de5"] ;
831 -> 832 ;
833 [label="days.with.cr.line <= 3569.979\ngini = 0.106\nsamples = 339\nvalue = [320, 19]", fillcolor="#e78845"] ;
831 -> 833 ;
834 [label="days.with.cr.line <= 2132.021\ngini = 0.088\nsamples = 305\nvalue = [291, 14]", fillcolor="#e68743"] ;
833 -> 834 ;
835 [label="revol.bal <= 16245.0\ngini = 0.167\nsamples = 109\nvalue = [99, 10]", fillcolor="#e88e4d"] ;
834 -> 835 ;
836 [label="dti <= 12.76\ngini = 0.128\nsamples = 102\nvalue = [95, 7]", fillcolor="#e78a48"] ;
835 -> 836 ;
837 [label="gini = 0.0\nsamples = 45\nvalue = [45, 0]", fillcolor="#e58139"] ;
836 -> 837 ;
838 [label="dti <= 12.895\ngini = 0.215\nsamples = 57\nvalue = [50, 7]", fillcolor="#e99355"] ;
836 -> 838 ;
839 [label="gini = 0.0\nsamples = 1\nvalue = [0, 1]", fillcolor="#399de5"] ;
838 -> 839 ;
840 [label="installment <= 239.555\ngini = 0.191\nsamples = 56\nvalue = [50, 6]", fillcolor="#e89051"] ;
838 -> 840 ;
841 [label="gini = 0.0\nsamples = 29\nvalue = [29, 0]", fillcolor="#e58139"] ;
840 -> 841 ;
842 [label="installment <= 337.86\ngini = 0.346\nsamples = 27\nvalue = [21, 6]", fillcolor="#eca572"] ;
840 -> 842 ;
843 [label="installment <= 267.41\ngini = 0.496\nsamples = 11\nvalue = [6, 5]", fillcolor="#fbeade"] ;
842 -> 843 ;
844 [label="dti <= 13.395\ngini = 0.245\nsamples = 7\nvalue = [6, 1]", fillcolor="#e9965a"] ;
843 -> 844 ;
845 [label="gini = 0.0\nsamples = 1\nvalue = [0, 1]", fillcolor="#399de5"] ;
844 -> 845 ;
846 [label="gini = 0.0\nsamples = 6\nvalue = [6, 0]", fillcolor="#e58139"] ;
844 -> 846 ;
847 [label="gini = 0.0\nsamples = 4\nvalue = [0, 4]", fillcolor="#399de5"] ;
843 -> 847 ;
848 [label="purpose_credit_card <= 0.5\ngini = 0.117\nsamples = 16\nvalue = [15, 1]", fillcolor="#e78946"] ;
842 -> 848 ;
849 [label="gini = 0.0\nsamples = 13\nvalue = [13, 0]", fillcolor="#e58139"] ;
848 -> 849 ;
850 [label="log.annual.inc <= 10.9\ngini = 0.444\nsamples = 3\nvalue = [2, 1]", fillcolor="#f2c09c"] ;
848 -> 850 ;
851 [label="gini = 0.0\nsamples = 1\nvalue = [0, 1]", fillcolor="#399de5"] ;
850 -> 851 ;
852 [label="gini = 0.0\nsamples = 2\nvalue = [2, 0]", fillcolor="#e58139"] ;
850 -> 852 ;
853 [label="days.with.cr.line <= 1935.0\ngini = 0.49\nsamples = 7\nvalue = [4, 3]", fillcolor="#f8e0ce"] ;
835 -> 853 ;
854 [label="revol.util <= 77.65\ngini = 0.32\nsamples = 5\nvalue = [4, 1]", fillcolor="#eca06a"] ;
853 -> 854 ;
855 [label="gini = 0.0\nsamples = 4\nvalue = [4, 0]", fillcolor="#e58139"] ;
854 -> 855 ;
856 [label="gini = 0.0\nsamples = 1\nvalue = [0, 1]", fillcolor="#399de5"] ;
854 -> 856 ;
857 [label="gini = 0.0\nsamples = 2\nvalue = [0, 2]", fillcolor="#399de5"] ;
853 -> 857 ;
858 [label="log.annual.inc <= 9.842\ngini = 0.04\nsamples = 196\nvalue = [192, 4]", fillcolor="#e6843d"] ;
834 -> 858 ;
859 [label="gini = 0.0\nsamples = 1\nvalue = [0, 1]", fillcolor="#399de5"] ;
858 -> 859 ;
860 [label="log.annual.inc <= 11.283\ngini = 0.03\nsamples = 195\nvalue = [192, 3]", fillcolor="#e5833c"] ;
858 -> 860 ;
861 [label="delinq.2yrs <= 1.5\ngini = 0.012\nsamples = 167\nvalue = [166, 1]", fillcolor="#e5823a"] ;
860 -> 861 ;
862 [label="gini = 0.0\nsamples = 159\nvalue = [159, 0]", fillcolor="#e58139"] ;
861 -> 862 ;
863 [label="int.rate <= 0.151\ngini = 0.219\nsamples = 8\nvalue = [7, 1]", fillcolor="#e99355"] ;
861 -> 863 ;
864 [label="gini = 0.0\nsamples = 7\nvalue = [7, 0]", fillcolor="#e58139"] ;
863 -> 864 ;
865 [label="gini = 0.0\nsamples = 1\nvalue = [0, 1]", fillcolor="#399de5"] ;
863 -> 865 ;
866 [label="dti <= 11.615\ngini = 0.133\nsamples = 28\nvalue = [26, 2]", fillcolor="#e78b48"] ;
860 -> 866 ;
867 [label="dti <= 10.775\ngini = 0.444\nsamples = 6\nvalue = [4, 2]", fillcolor="#f2c09c"] ;
866 -> 867 ;
868 [label="gini = 0.0\nsamples = 3\nvalue = [3, 0]", fillcolor="#e58139"] ;
867 -> 868 ;
869 [label="log.annual.inc <= 11.456\ngini = 0.444\nsamples = 3\nvalue = [1, 2]", fillcolor="#9ccef2"] ;
867 -> 869 ;
870 [label="gini = 0.0\nsamples = 2\nvalue = [0, 2]", fillcolor="#399de5"] ;
869 -> 870 ;
871 [label="gini = 0.0\nsamples = 1\nvalue = [1, 0]", fillcolor="#e58139"] ;
869 -> 871 ;
872 [label="gini = 0.0\nsamples = 22\nvalue = [22, 0]", fillcolor="#e58139"] ;
866 -> 872 ;
873 [label="revol.bal <= 1618.5\ngini = 0.251\nsamples = 34\nvalue = [29, 5]", fillcolor="#e9975b"] ;
833 -> 873 ;
874 [label="dti <= 16.665\ngini = 0.444\nsamples = 3\nvalue = [1, 2]", fillcolor="#9ccef2"] ;
873 -> 874 ;
875 [label="gini = 0.0\nsamples = 2\nvalue = [0, 2]", fillcolor="#399de5"] ;
874 -> 875 ;
876 [label="gini = 0.0\nsamples = 1\nvalue = [1, 0]", fillcolor="#e58139"] ;
874 -> 876 ;
877 [label="dti <= 10.25\ngini = 0.175\nsamples = 31\nvalue = [28, 3]", fillcolor="#e88e4e"] ;
873 -> 877 ;
878 [label="gini = 0.0\nsamples = 1\nvalue = [0, 1]", fillcolor="#399de5"] ;
877 -> 878 ;
879 [label="installment <= 68.255\ngini = 0.124\nsamples = 30\nvalue = [28, 2]", fillcolor="#e78a47"] ;
877 -> 879 ;
880 [label="gini = 0.0\nsamples = 1\nvalue = [0, 1]", fillcolor="#399de5"] ;
879 -> 880 ;
881 [label="log.annual.inc <= 10.416\ngini = 0.067\nsamples = 29\nvalue = [28, 1]", fillcolor="#e68640"] ;
879 -> 881 ;
882 [label="fico <= 684.5\ngini = 0.444\nsamples = 3\nvalue = [2, 1]", fillcolor="#f2c09c"] ;
881 -> 882 ;
883 [label="gini = 0.0\nsamples = 2\nvalue = [2, 0]", fillcolor="#e58139"] ;
882 -> 883 ;
884 [label="gini = 0.0\nsamples = 1\nvalue = [0, 1]", fillcolor="#399de5"] ;
882 -> 884 ;
885 [label="gini = 0.0\nsamples = 26\nvalue = [26, 0]", fillcolor="#e58139"] ;
881 -> 885 ;
886 [label="log.annual.inc <= 10.597\ngini = 0.275\nsamples = 225\nvalue = [188, 37]", fillcolor="#ea9a60"] ;
746 -> 886 ;
887 [label="purpose_home_improvement <= 0.5\ngini = 0.36\nsamples = 102\nvalue = [78, 24]", fillcolor="#eda876"] ;
886 -> 887 ;
888 [label="dti <= 19.925\ngini = 0.343\nsamples = 100\nvalue = [78, 22]", fillcolor="#eca571"] ;
887 -> 888 ;
889 [label="fico <= 679.5\ngini = 0.473\nsamples = 26\nvalue = [16, 10]", fillcolor="#f5d0b5"] ;
888 -> 889 ;
890 [label="log.annual.inc <= 10.227\ngini = 0.444\nsamples = 9\nvalue = [3, 6]", fillcolor="#9ccef2"] ;
889 -> 890 ;
891 [label="int.rate <= 0.153\ngini = 0.375\nsamples = 4\nvalue = [3, 1]", fillcolor="#eeab7b"] ;
890 -> 891 ;
892 [label="gini = 0.0\nsamples = 3\nvalue = [3, 0]", fillcolor="#e58139"] ;
891 -> 892 ;
893 [label="gini = 0.0\nsamples = 1\nvalue = [0, 1]", fillcolor="#399de5"] ;
891 -> 893 ;
894 [label="gini = 0.0\nsamples = 5\nvalue = [0, 5]", fillcolor="#399de5"] ;
890 -> 894 ;
895 [label="fico <= 694.5\ngini = 0.36\nsamples = 17\nvalue = [13, 4]", fillcolor="#eda876"] ;
889 -> 895 ;
896 [label="gini = 0.0\nsamples = 9\nvalue = [9, 0]", fillcolor="#e58139"] ;
895 -> 896 ;
897 [label="days.with.cr.line <= 2071.021\ngini = 0.5\nsamples = 8\nvalue = [4, 4]", fillcolor="#ffffff"] ;
895 -> 897 ;
898 [label="gini = 0.0\nsamples = 4\nvalue = [4, 0]", fillcolor="#e58139"] ;
897 -> 898 ;
899 [label="gini = 0.0\nsamples = 4\nvalue = [0, 4]", fillcolor="#399de5"] ;
897 -> 899 ;
900 [label="installment <= 436.955\ngini = 0.272\nsamples = 74\nvalue = [62, 12]", fillcolor="#ea995f"] ;
888 -> 900 ;
901 [label="dti <= 24.97\ngini = 0.242\nsamples = 71\nvalue = [61, 10]", fillcolor="#e99659"] ;
900 -> 901 ;
902 [label="fico <= 664.5\ngini = 0.224\nsamples = 70\nvalue = [61, 9]", fillcolor="#e99456"] ;
901 -> 902 ;
903 [label="delinq.2yrs <= 0.5\ngini = 0.469\nsamples = 8\nvalue = [5, 3]", fillcolor="#f5cdb0"] ;
902 -> 903 ;
904 [label="revol.bal <= 983.0\ngini = 0.278\nsamples = 6\nvalue = [5, 1]", fillcolor="#ea9a61"] ;
903 -> 904 ;
905 [label="gini = 0.0\nsamples = 1\nvalue = [0, 1]", fillcolor="#399de5"] ;
904 -> 905 ;
906 [label="gini = 0.0\nsamples = 5\nvalue = [5, 0]", fillcolor="#e58139"] ;
904 -> 906 ;
907 [label="gini = 0.0\nsamples = 2\nvalue = [0, 2]", fillcolor="#399de5"] ;
903 -> 907 ;
908 [label="int.rate <= 0.16\ngini = 0.175\nsamples = 62\nvalue = [56, 6]", fillcolor="#e88e4e"] ;
902 -> 908 ;
909 [label="revol.util <= 38.75\ngini = 0.15\nsamples = 61\nvalue = [56, 5]", fillcolor="#e78c4b"] ;
908 -> 909 ;
910 [label="revol.util <= 37.95\ngini = 0.32\nsamples = 15\nvalue = [12, 3]", fillcolor="#eca06a"] ;
909 -> 910 ;
911 [label="gini = 0.0\nsamples = 11\nvalue = [11, 0]", fillcolor="#e58139"] ;
910 -> 911 ;
912 [label="days.with.cr.line <= 1738.5\ngini = 0.375\nsamples = 4\nvalue = [1, 3]", fillcolor="#7bbeee"] ;
910 -> 912 ;
913 [label="gini = 0.0\nsamples = 1\nvalue = [1, 0]", fillcolor="#e58139"] ;
912 -> 913 ;
914 [label="gini = 0.0\nsamples = 3\nvalue = [0, 3]", fillcolor="#399de5"] ;
912 -> 914 ;
915 [label="installment <= 323.87\ngini = 0.083\nsamples = 46\nvalue = [44, 2]", fillcolor="#e68742"] ;
909 -> 915 ;
916 [label="gini = 0.0\nsamples = 37\nvalue = [37, 0]", fillcolor="#e58139"] ;
915 -> 916 ;
917 [label="installment <= 339.715\ngini = 0.346\nsamples = 9\nvalue = [7, 2]", fillcolor="#eca572"] ;
915 -> 917 ;
918 [label="days.with.cr.line <= 3090.0\ngini = 0.444\nsamples = 3\nvalue = [1, 2]", fillcolor="#9ccef2"] ;
917 -> 918 ;
919 [label="gini = 0.0\nsamples = 2\nvalue = [0, 2]", fillcolor="#399de5"] ;
918 -> 919 ;
920 [label="gini = 0.0\nsamples = 1\nvalue = [1, 0]", fillcolor="#e58139"] ;
918 -> 920 ;
921 [label="gini = 0.0\nsamples = 6\nvalue = [6, 0]", fillcolor="#e58139"] ;
917 -> 921 ;
922 [label="gini = 0.0\nsamples = 1\nvalue = [0, 1]", fillcolor="#399de5"] ;
908 -> 922 ;
923 [label="gini = 0.0\nsamples = 1\nvalue = [0, 1]", fillcolor="#399de5"] ;
901 -> 923 ;
924 [label="revol.bal <= 19167.0\ngini = 0.444\nsamples = 3\nvalue = [1, 2]", fillcolor="#9ccef2"] ;
900 -> 924 ;
925 [label="gini = 0.0\nsamples = 2\nvalue = [0, 2]", fillcolor="#399de5"] ;
924 -> 925 ;
926 [label="gini = 0.0\nsamples = 1\nvalue = [1, 0]", fillcolor="#e58139"] ;
924 -> 926 ;
927 [label="gini = 0.0\nsamples = 2\nvalue = [0, 2]", fillcolor="#399de5"] ;
887 -> 927 ;
928 [label="revol.bal <= 1473.5\ngini = 0.189\nsamples = 123\nvalue = [110, 13]", fillcolor="#e89050"] ;
886 -> 928 ;
929 [label="delinq.2yrs <= 0.5\ngini = 0.444\nsamples = 3\nvalue = [1, 2]", fillcolor="#9ccef2"] ;
928 -> 929 ;
930 [label="gini = 0.0\nsamples = 2\nvalue = [0, 2]", fillcolor="#399de5"] ;
929 -> 930 ;
931 [label="gini = 0.0\nsamples = 1\nvalue = [1, 0]", fillcolor="#e58139"] ;
929 -> 931 ;
932 [label="revol.util <= 23.6\ngini = 0.167\nsamples = 120\nvalue = [109, 11]", fillcolor="#e88e4d"] ;
928 -> 932 ;
933 [label="purpose_major_purchase <= 0.5\ngini = 0.5\nsamples = 2\nvalue = [1, 1]", fillcolor="#ffffff"] ;
932 -> 933 ;
934 [label="gini = 0.0\nsamples = 1\nvalue = [0, 1]", fillcolor="#399de5"] ;
933 -> 934 ;
935 [label="gini = 0.0\nsamples = 1\nvalue = [1, 0]", fillcolor="#e58139"] ;
933 -> 935 ;
936 [label="days.with.cr.line <= 3375.0\ngini = 0.155\nsamples = 118\nvalue = [108, 10]", fillcolor="#e78d4b"] ;
932 -> 936 ;
937 [label="days.with.cr.line <= 1890.0\ngini = 0.093\nsamples = 82\nvalue = [78, 4]", fillcolor="#e68743"] ;
936 -> 937 ;
938 [label="days.with.cr.line <= 1740.0\ngini = 0.346\nsamples = 9\nvalue = [7, 2]", fillcolor="#eca572"] ;
937 -> 938 ;
939 [label="gini = 0.0\nsamples = 7\nvalue = [7, 0]", fillcolor="#e58139"] ;
938 -> 939 ;
940 [label="gini = 0.0\nsamples = 2\nvalue = [0, 2]", fillcolor="#399de5"] ;
938 -> 940 ;
941 [label="revol.bal <= 51602.5\ngini = 0.053\nsamples = 73\nvalue = [71, 2]", fillcolor="#e6853f"] ;
937 -> 941 ;
942 [label="days.with.cr.line <= 2309.979\ngini = 0.028\nsamples = 70\nvalue = [69, 1]", fillcolor="#e5833c"] ;
941 -> 942 ;
943 [label="log.annual.inc <= 10.716\ngini = 0.124\nsamples = 15\nvalue = [14, 1]", fillcolor="#e78a47"] ;
942 -> 943 ;
944 [label="gini = 0.0\nsamples = 1\nvalue = [0, 1]", fillcolor="#399de5"] ;
943 -> 944 ;
945 [label="gini = 0.0\nsamples = 14\nvalue = [14, 0]", fillcolor="#e58139"] ;
943 -> 945 ;
946 [label="gini = 0.0\nsamples = 55\nvalue = [55, 0]", fillcolor="#e58139"] ;
942 -> 946 ;
947 [label="fico <= 694.5\ngini = 0.444\nsamples = 3\nvalue = [2, 1]", fillcolor="#f2c09c"] ;
941 -> 947 ;
948 [label="gini = 0.0\nsamples = 2\nvalue = [2, 0]", fillcolor="#e58139"] ;
947 -> 948 ;
949 [label="gini = 0.0\nsamples = 1\nvalue = [0, 1]", fillcolor="#399de5"] ;
947 -> 949 ;
950 [label="days.with.cr.line <= 3404.979\ngini = 0.278\nsamples = 36\nvalue = [30, 6]", fillcolor="#ea9a61"] ;
936 -> 950 ;
951 [label="gini = 0.0\nsamples = 2\nvalue = [0, 2]", fillcolor="#399de5"] ;
950 -> 951 ;
952 [label="installment <= 521.055\ngini = 0.208\nsamples = 34\nvalue = [30, 4]", fillcolor="#e89253"] ;
950 -> 952 ;
953 [label="purpose_credit_card <= 0.5\ngini = 0.071\nsamples = 27\nvalue = [26, 1]", fillcolor="#e68641"] ;
952 -> 953 ;
954 [label="gini = 0.0\nsamples = 21\nvalue = [21, 0]", fillcolor="#e58139"] ;
953 -> 954 ;
955 [label="dti <= 22.77\ngini = 0.278\nsamples = 6\nvalue = [5, 1]", fillcolor="#ea9a61"] ;
953 -> 955 ;
956 [label="gini = 0.0\nsamples = 5\nvalue = [5, 0]", fillcolor="#e58139"] ;
955 -> 956 ;
957 [label="gini = 0.0\nsamples = 1\nvalue = [0, 1]", fillcolor="#399de5"] ;
955 -> 957 ;
958 [label="log.annual.inc <= 10.897\ngini = 0.49\nsamples = 7\nvalue = [4, 3]", fillcolor="#f8e0ce"] ;
952 -> 958 ;
959 [label="gini = 0.0\nsamples = 2\nvalue = [0, 2]", fillcolor="#399de5"] ;
958 -> 959 ;
960 [label="installment <= 530.6\ngini = 0.32\nsamples = 5\nvalue = [4, 1]", fillcolor="#eca06a"] ;
958 -> 960 ;
961 [label="gini = 0.0\nsamples = 1\nvalue = [0, 1]", fillcolor="#399de5"] ;
960 -> 961 ;
962 [label="gini = 0.0\nsamples = 4\nvalue = [4, 0]", fillcolor="#e58139"] ;
960 -> 962 ;
963 [label="installment <= 536.25\ngini = 0.375\nsamples = 48\nvalue = [36, 12]", fillcolor="#eeab7b"] ;
745 -> 963 ;
964 [label="revol.bal <= 3886.5\ngini = 0.298\nsamples = 44\nvalue = [36, 8]", fillcolor="#eb9d65"] ;
963 -> 964 ;
965 [label="revol.util <= 71.85\ngini = 0.469\nsamples = 16\nvalue = [10, 6]", fillcolor="#f5cdb0"] ;
964 -> 965 ;
966 [label="fico <= 664.5\ngini = 0.355\nsamples = 13\nvalue = [10, 3]", fillcolor="#eda774"] ;
965 -> 966 ;
967 [label="gini = 0.0\nsamples = 1\nvalue = [0, 1]", fillcolor="#399de5"] ;
966 -> 967 ;
968 [label="log.annual.inc <= 10.077\ngini = 0.278\nsamples = 12\nvalue = [10, 2]", fillcolor="#ea9a61"] ;
966 -> 968 ;
